svm_type c_svc
kernel_type linear
nr_class 2
total_sv 1630
rho -2.45442
label 1 -1
nr_sv 815 815
SV
5 0:0.21818182 1:0.10638298 2:0 3:46 4:1 5:1.010496 
5 0:0.45454545 1:0.090909091 2:0 3:9 4:1 5:0.64712108 
5 0:0.47272727 1:0.11111111 2:0 3:8 4:1 5:0.46869797 
5 0:0.54545455 1:0.21428571 2:0 3:12 4:6 5:0.29744727 
5 0:0.61818182 1:0.052631579 2:0 3:13 4:8 5:1.0273489 
5 0:0.83636364 1:0.055555556 2:0 3:18 4:1 5:1.0324399 
5 0:0.85454545 1:0 2:0 3:18 4:0 5:0.68601696 
5 0:0.13043478 1:0.16666667 2:2 3:11 4:1 5:0.80845319 
5 0:0.69565217 1:0.16666667 2:2 3:12 4:3 5:0.25420308 
5 0:0.375 1:0.066666667 2:1 3:27 4:4 5:2.7220194 
5 0:0.2 1:0.08 2:0 3:24 4:6 5:0.8662089 
5 0:0.073170732 1:0.26666667 2:1 3:15 4:0 5:0.86400122 
5 0:0.2195122 1:0.083333333 2:0 3:12 4:1 5:0.87589062 
5 0:0.56097561 1:0.28125 2:0 3:27 4:6 5:1.2394688 
5 0:0.97560976 1:0.14285714 2:2 3:13 4:0 5:0.75283258 
5 0:0.066666667 1:0.13043478 2:1 3:21 4:2 5:1.8168117 
5 0:0.75555556 1:0.047619048 2:0 3:20 4:1 5:0.57923739 
5 0:0.13043478 1:0.16666667 2:2 3:11 4:1 5:0.80845319 
5 0:0.69565217 1:0.16666667 2:2 3:12 4:3 5:0.25420308 
5 0:0.090909091 1:0.066666667 2:1 3:14 4:1 5:0.40044574 
5 0:0.36363636 1:0.28571429 2:0 3:14 4:0 5:0.26447881 
5 0:0.71428571 1:0.047619048 2:1 3:21 4:0 5:1.0653371 
5 0:0.20689655 1:0.071428571 2:0 3:14 4:0 5:0.97209116 
5 0:0.72413793 1:0.14285714 2:1 3:14 4:0 5:1.0004508 
5 0:0.75862069 1:0.16666667 2:2 3:28 4:4 5:1.0549801 
5 0:0.095238095 1:0.23076923 2:0 3:24 4:3 5:2.1322221 
5 0:0.21428571 1:0.25 2:0 3:8 4:1 5:1.0636118 
5 0:0.23809524 1:0.33333333 2:0 3:10 4:1 5:2.8612104 
5 0:0.42857143 1:0.17647059 2:0 3:18 4:2 5:2.2315999 
5 0:0.69767442 1:0.052631579 2:0 3:19 4:4 5:0.58715814 
5 0:0.76744186 1:0.33333333 2:0 3:15 4:4 5:0.92180522 
5 0:0.79069767 1:0.058823529 2:0 3:17 4:1 5:0.35607611 
5 0:0.81395349 1:0.125 2:0 3:7 4:1 5:0.52275262 
5 0:0.11111111 1:0.13636364 2:4 3:21 4:3 5:0.55164051 
5 0:0.2962963 1:0.13888889 2:3 3:35 4:1 5:1.4447167 
5 0:0.59259259 1:0 2:1 3:11 4:0 5:0.91876742 
5 0:0.46153846 1:0.4 2:1 3:9 4:1 5:2.0385586 
5 0:0.64102564 1:0.125 2:1 3:8 4:0 5:1.1505818 
5 0:0.45 1:0.055555556 2:0 3:18 4:0 5:0.78996842 
5 0:0.23333333 1:0.045454545 2:1 3:23 4:1 5:1.0469665 
5 0:0.063829787 1:0.27272727 2:1 3:11 4:0 5:0.44905315 
5 0:0.17021277 1:0.4 2:0 3:5 4:0 5:0.18072846 
5 0:0.085714286 1:0.22727273 2:0 3:22 4:0 5:0.59370656 
5 0:0.31428571 1:0.14285714 2:1 3:20 4:1 5:0.60263027 
5 0:0.68571429 1:0.11538462 2:3 3:22 4:4 5:2.0008331 
5 0:0.77142857 1:0.13888889 2:2 3:37 4:1 5:3.0458826 
5 0:0.069767442 1:0.14285714 2:0 3:14 4:1 5:1.1891042 
5 0:0.72093023 1:0.1 2:0 3:10 4:0 5:0.26308192 
5 0:0.74418605 1:0.045454545 2:0 3:21 4:1 5:1.0442611 
5 0:0.065217391 1:0.18181818 2:0 3:11 4:0 5:1.2392687 
5 0:0.13043478 1:0.076923077 2:0 3:13 4:0 5:0.95695407 
5 0:0.63043478 1:0.090909091 2:2 3:12 4:2 5:0.85596699 
5 0:0.65217391 1:0.04 2:0 3:26 4:3 5:1.1623883 
5 0:0.35714286 1:0.068965517 2:0 3:28 4:0 5:2.1976883 
5 0:0.5 1:0.047619048 2:0 3:20 4:1 5:0.86891895 
5 0:0.089552239 1:0.16666667 2:0 3:11 4:0 5:0.80727567 
5 0:0.19402985 1:0.058823529 2:0 3:17 4:2 5:0.39954489 
5 0:0.26865672 1:0.16666667 2:1 3:13 4:1 5:0.42104541 
5 0:0.28358209 1:0.33333333 2:1 3:10 4:0 5:0.21752057 
5 0:0.43283582 1:0.090909091 2:0 3:11 4:0 5:0.86012607 
5 0:0.46268657 1:0.05 2:0 3:24 4:0 5:2.7136894 
5 0:0.6119403 1:0.083333333 2:1 3:12 4:0 5:0.79487336 
5 0:0.82089552 1:0.11111111 2:0 3:9 4:0 5:0.2837433 
5 0:0.13157895 1:0.047619048 2:0 3:21 4:0 5:2.0845244 
5 0:0.26315789 1:0.076923077 2:0 3:12 4:1 5:0.41856998 
5 0:0.20689655 1:0.066666667 2:0 3:15 4:8 5:2.7471053 
5 0:0.12121212 1:0.10344828 2:2 3:23 4:14 5:3.9915715 
5 0:0.09375 1:0.1875 2:1 3:15 4:5 5:0.82885249 
5 0:0.25 1:0.14285714 2:1 3:14 4:1 5:0.44150596 
5 0:0.59375 1:0.125 2:0 3:8 4:0 5:0.20518466 
5 0:0.073170732 1:0.1875 2:0 3:15 4:1 5:2.2048364 
5 0:0.14634146 1:0.11111111 2:0 3:18 4:0 5:1.0246813 
5 0:0.17073171 1:0.14285714 2:0 3:13 4:1 5:2.6108345 
5 0:0.31707317 1:0.25 2:0 3:8 4:0 5:1.4757102 
5 0:0.65853659 1:0.095238095 2:0 3:21 4:0 5:1.0112809 
5 0:0.088235294 1:0.22222222 2:4 3:9 4:0 5:1.3076073 
5 0:0.23529412 1:0.090909091 2:0 3:13 4:7 5:2.0974854 
5 0:0.090909091 1:0.25 2:0 3:11 4:0 5:0.51363159 
5 0:0.19230769 1:0.083333333 2:0 3:11 4:3 5:0.15711421 
5 0:0.40384615 1:0 2:9 3:32 4:3 5:3.0434895 
5 0:0.42307692 1:0.055555556 2:1 3:17 4:0 5:1.2576333 
5 0:0.44230769 1:0.090909091 2:2 3:11 4:0 5:0.45280753 
5 0:0.46153846 1:0.090909091 2:0 3:11 4:0 5:0.18570386 
5 0:0.48717949 1:0.058823529 2:0 3:14 4:1 5:0.3726087 
5 0:0.66666667 1:0.066666667 2:0 3:14 4:3 5:0.45362561 
5 0:0.69230769 1:0.21052632 2:0 3:16 4:2 5:1.7559406 
5 0:0.063829787 1:0.33333333 2:1 3:11 4:1 5:0.14959195 
5 0:0.085106383 1:0.27272727 2:0 3:11 4:0 5:0.29031939 
5 0:0.21276596 1:0.25 2:1 3:21 4:2 5:0.42103077 
5 0:0.91489362 1:0.30769231 2:0 3:12 4:1 5:0.25683572 
5 0:0.4 1:0.375 2:0 3:8 4:0 5:0.3315441 
5 0:0.6 1:0.44444444 2:0 3:18 4:0 5:0.67547318 
5 0:0.15384615 1:0.071428571 2:0 3:13 4:1 5:0.70956322 
5 0:0.34615385 1:0.1 2:0 3:11 4:0 5:0.26374891 
5 0:0.69230769 1:0.125 2:0 3:16 4:0 5:2.0504889 
5 0:0.09375 1:0.1875 2:0 3:17 4:0 5:0.78801915 
5 0:0.21875 1:0.19047619 2:1 3:20 4:1 5:0.35975533 
5 0:0.5 1:0.076923077 2:0 3:13 4:0 5:0.56311889 
5 0:0.090909091 1:0.41666667 2:2 3:11 4:1 5:0.37260999 
5 0:0.3030303 1:0.35714286 2:0 3:14 4:0 5:0.91355265 
5 0:0.6969697 1:0.2 2:0 3:10 4:0 5:0.2708448 
5 0:0.11111111 1:0.076923077 2:0 3:12 4:1 5:0.33281013 
5 0:0.09375 1:0.44444444 2:0 3:9 4:3 5:0.36306638 
5 0:0.21875 1:0.05 2:0 3:22 4:4 5:0.54487294 
5 0:0.5 1:0.22222222 2:1 3:8 4:1 5:0.63667748 
5 0:0.84375 1:0.13636364 2:0 3:21 4:4 5:1.0178213 
5 0:0.5 1:0.14285714 2:0 3:14 4:0 5:1.0181366 
5 0:0.68181818 1:0.23529412 2:2 3:17 4:0 5:3.4381439 
5 0:0.076923077 1:0.41666667 2:1 3:12 4:0 5:0.29935148 
5 0:0.20512821 1:0.25 2:1 3:8 4:3 5:0.69949047 
5 0:0.61538462 1:0.33333333 2:0 3:6 4:3 5:1.2425925 
5 0:0.38636364 1:0.16666667 2:0 3:13 4:2 5:0.39986367 
5 0:0.40909091 1:0.4 2:0 3:9 4:1 5:0.21756125 
5 0:0.066666667 1:0.38461538 2:0 3:13 4:0 5:1.1978048 
5 0:0.31111111 1:0.090909091 2:1 3:11 4:0 5:0.46147872 
5 0:0.37777778 1:0.076923077 2:2 3:25 4:7 5:2.2174178 
5 0:0.53333333 1:0.11111111 2:1 3:8 4:5 5:0.23393193 
5 0:0.55555556 1:0.083333333 2:0 3:11 4:2 5:0.15495652 
5 0:0.11111111 1:0.076923077 2:3 3:12 4:0 5:0.96710135 
5 0:0.40740741 1:0.076923077 2:1 3:9 4:5 5:0.66565611 
5 0:0.44444444 1:0.057142857 2:3 3:35 4:1 5:2.0303074 
5 0:0.1 1:0.13043478 2:2 3:22 4:0 5:0.49890103 
5 0:0.23333333 1:0.086956522 2:1 3:22 4:2 5:2.1043507 
5 0:0.3 1:0.045454545 2:2 3:19 4:6 5:1.1336276 
5 0:0.33333333 1:0.2 2:2 3:11 4:6 5:0.42409075 
5 0:0.066666667 1:0.26315789 2:2 3:20 4:0 5:1.2442871 
5 0:0.13333333 1:0.25 2:1 3:9 4:0 5:0.29528993 
5 0:0.28888889 1:0.2 2:1 3:8 4:0 5:0.67400843 
5 0:0.31111111 1:0 2:1 3:23 4:4 5:0.68575743 
5 0:0.38235294 1:0.071428571 2:0 3:14 4:0 5:1.2577835 
5 0:0.79411765 1:0.041666667 2:1 3:25 4:0 5:2.1779143 
5 0:0.13636364 1:0.33333333 2:0 3:9 4:1 5:0.25260528 
5 0:0.52272727 1:0.25 2:0 3:11 4:0 5:0.32407058 
5 0:0.54545455 1:0.2 2:0 3:15 4:0 5:0.40398982 
5 0:0.56818182 1:0.125 2:0 3:8 4:0 5:0.19792465 
5 0:0.86363636 1:0.23076923 2:0 3:13 4:0 5:0.69431929 
5 0:0.21875 1:0.14285714 2:1 3:27 4:1 5:2.2670808 
5 0:0.375 1:0.22727273 2:1 3:22 4:1 5:0.94684822 
5 0:0.40625 1:0.2 2:0 3:10 4:1 5:0.29753691 
5 0:0.8125 1:0.29166667 2:1 3:24 4:0 5:0.5381695 
5 0:0.071428571 1:0.23076923 2:0 3:11 4:2 5:0.21343871 
5 0:0.14285714 1:0.052631579 2:0 3:17 4:1 5:0.83077524 
5 0:0.30952381 1:0.21052632 2:0 3:22 4:6 5:0.63845437 
5 0:0.38095238 1:0.027027027 2:0 3:35 4:6 5:2.055907 
5 0:0.10344828 1:0.15384615 2:0 3:13 4:0 5:1.4324474 
5 0:0.68965517 1:0.14285714 2:0 3:14 4:0 5:0.66760492 
5 0:0.72413793 1:0.3 2:0 3:10 4:0 5:0.51856934 
5 0:0.37777778 1:0.21428571 2:0 3:14 4:0 5:0.28999166 
5 0:0.75555556 1:0.14814815 2:0 3:25 4:3 5:0.80777711 
5 0:0.48 1:0.1 2:0 3:10 4:0 5:2.141558 
5 0:0.48484848 1:0.058823529 2:0 3:16 4:1 5:0.95829638 
5 0:0.81818182 1:0.076923077 2:1 3:13 4:0 5:0.9357027 
5 0:0.25 1:0.14285714 2:1 3:19 4:2 5:1.0545035 
5 0:0.8125 1:0.1 2:0 3:19 4:1 5:1.3378976 
5 0:0.84375 1:0.33333333 2:0 3:6 4:0 5:0.16347713 
5 0:0.15151515 1:0.052631579 2:0 3:18 4:1 5:0.4056435 
5 0:0.36363636 1:0.1875 2:0 3:26 4:6 5:1.6279184 
5 0:0.75757576 1:0.5 2:0 3:10 4:2 5:0.29717013 
5 0:0.28571429 1:0.0625 2:0 3:16 4:0 5:1.0060596 
5 0:0.4 1:0.066666667 2:0 3:15 4:0 5:1.1677677 
5 0:0.43478261 1:0.17391304 2:1 3:21 4:4 5:2.4530045 
5 0:0.82608696 1:0.058823529 2:0 3:14 4:2 5:0.29043654 
5 0:0.20833333 1:0.13636364 2:2 3:21 4:0 5:1.0721567 
5 0:0.25 1:0.16666667 2:0 3:11 4:2 5:0.19255939 
5 0:0.44827586 1:0.076923077 2:1 3:22 4:4 5:1.2896377 
5 0:0.65517241 1:0.08 2:1 3:23 4:2 5:1.2928939 
5 0:0.25 1:0.16666667 2:0 3:16 4:0 5:2.3043502 
5 0:0.41666667 1:0.15384615 2:0 3:13 4:0 5:0.36347878 
5 0:0.06122449 1:0.44444444 2:0 3:10 4:0 5:0.35672889 
5 0:0.28571429 1:0.27777778 2:0 3:14 4:3 5:0.69685332 
5 0:0.69387755 1:0.125 2:0 3:16 4:4 5:0.94611157 
5 0:0.61538462 1:0.052631579 2:1 3:17 4:4 5:1.7166335 
5 0:0.85365854 1:0.27777778 2:0 3:17 4:1 5:1.5687394 
5 0:0.22727273 1:0.33333333 2:0 3:6 4:1 5:0.16915285 
5 0:0.81818182 1:0.125 2:0 3:14 4:3 5:0.70105039 
5 0:0.31034483 1:0.15789474 2:1 3:20 4:0 5:0.79374812 
5 0:0.44827586 1:0.17857143 2:2 3:25 4:5 5:0.77072736 
5 0:0.14285714 1:0.05 2:2 3:19 4:1 5:0.444983 
5 0:0.65714286 1:0.0625 2:0 3:12 4:4 5:1.5500507 
5 0:0.82857143 1:0.27272727 2:1 3:9 4:2 5:0.47325764 
5 0:0.55555556 1:0.0625 2:1 3:15 4:1 5:2.0321797 
5 0:0.59259259 1:0.090909091 2:0 3:10 4:1 5:1.3511433 
5 0:0.22580645 1:0.058823529 2:1 3:17 4:0 5:0.36088745 
5 0:0.58064516 1:0.11111111 2:1 3:9 4:0 5:0.23998442 
5 0:0.14285714 1:0.18181818 2:3 3:21 4:1 5:2.4871084 
5 0:0.28571429 1:0.27777778 2:2 3:18 4:2 5:2.2724736 
5 0:0.71428571 1:0.125 2:0 3:8 4:0 5:0.4022923 
5 0:0.76470588 1:0.076923077 2:3 3:13 4:1 5:0.30688951 
5 0:0.125 1:0.25 2:0 3:15 4:0 5:0.20708646 
5 0:0.5 1:0.36363636 2:0 3:11 4:0 5:1.4550319 
5 0:0.625 1:0.375 2:0 3:16 4:0 5:1.2224209 
5 0:0.04 1:0.055555556 2:1 3:18 4:0 5:0.59311819 
5 0:0.13333333 1:0.1 2:0 3:21 4:0 5:0.90339806 
5 0:0.54666667 1:0.071428571 2:0 3:14 4:0 5:0.68534267 
5 0:0.1 1:0.30769231 2:1 3:12 4:1 5:0.55245104 
5 0:0.52 1:0.18181818 2:2 3:11 4:1 5:0.7489798 
5 0:0.56 1:0.066666667 2:2 3:13 4:2 5:0.43506404 
5 0:0.088888889 1:0.16666667 2:0 3:14 4:4 5:0.29258535 
5 0:0.2 1:0.055555556 2:0 3:18 4:0 5:1.1317068 
5 0:0.7 1:0.090909091 2:1 3:11 4:4 5:1.0844396 
5 0:0.15625 1:0.27272727 2:0 3:11 4:0 5:0.43805404 
5 0:0.1875 1:0.17647059 2:0 3:15 4:0 5:2.2138239 
5 0:0.6875 1:0.16666667 2:0 3:6 4:0 5:0.20628239 
5 0:0.22222222 1:0.2 2:1 3:21 4:1 5:1.0311685 
5 0:0.72222222 1:0.15 2:0 3:15 4:6 5:0.83211349 
5 0:0.15151515 1:0.2 2:0 3:9 4:3 5:1.3280102 
5 0:0.63636364 1:0 2:0 3:14 4:0 5:1.8502505 
5 0:0.72727273 1:0.14285714 2:0 3:7 4:0 5:0.14331489 
5 0:0.94285714 1:0.074074074 2:1 3:23 4:3 5:1.1615667 
5 0:0.85294118 1:0.071428571 2:0 3:10 4:4 5:0.61880638 
5 0:0.47058824 1:0.076923077 2:0 3:15 4:4 5:0.32737132 
5 0:0.5 1:0.1 2:0 3:11 4:0 5:0.39030694 
5 0:0.14285714 1:0.11764706 2:0 3:16 4:1 5:2.238682 
5 0:0.16666667 1:0.1 2:0 3:19 4:1 5:2.6864656 
5 0:0.23809524 1:0.33333333 2:0 3:6 4:0 5:0.33787206 
5 0:0.26190476 1:0.18181818 2:0 3:16 4:3 5:2.1921513 
5 0:0.28571429 1:0.28571429 2:0 3:7 4:0 5:0.22279362 
5 0:0.081081081 1:0.05 2:0 3:17 4:1 5:0.55372423 
5 0:0.21621622 1:0.058823529 2:0 3:17 4:0 5:0.42027785 
5 0:0.72972973 1:0.125 2:2 3:7 4:1 5:1.1943806 
5 0:0.6097561 1:0.2 2:0 3:8 4:1 5:0.12381193 
5 0:0.63414634 1:0.20833333 2:0 3:19 4:5 5:1.3256419 
5 0:0.090909091 1:0.16666667 2:0 3:15 4:1 5:1.4974729 
5 0:0.18181818 1:0.15625 2:1 3:31 4:1 5:2.3305619 
5 0:0.66666667 1:0.069767442 2:0 3:28 4:15 5:1.6304118 
5 0:0.90909091 1:0.17647059 2:1 3:16 4:1 5:1.3578813 
5 0:0.45454545 1:0.53333333 2:0 3:13 4:0 5:0.78219597 
5 0:0.1509434 1:0.0625 2:0 3:12 4:4 5:0.59575883 
5 0:0.18867925 1:0.1 2:0 3:12 4:5 5:0.57673295 
5 0:0.28301887 1:0.047619048 2:0 3:21 4:0 5:0.8620413 
5 0:0.038461538 1:0.066666667 2:0 3:15 4:0 5:0.9370993 
5 0:0.20512821 1:0.29411765 2:1 3:17 4:0 5:0.38734887 
5 0:0.33333333 1:0.095238095 2:2 3:41 4:7 5:1.3832352 
5 0:0.53846154 1:0.125 2:1 3:17 4:0 5:0.64892911 
5 0:0.96153846 1:0.083333333 2:1 3:22 4:0 5:0.73841625 
5 0:0.20689655 1:0.090909091 2:0 3:11 4:1 5:1.1078502 
5 0:0.24137931 1:0.36842105 2:0 3:20 4:1 5:0.82355886 
5 0:0.31034483 1:0.15384615 2:0 3:13 4:0 5:0.35668016 
5 0:0.75862069 1:0.22222222 2:0 3:9 4:1 5:0.50493147 
5 0:0.26666667 1:0.032258065 2:0 3:30 4:1 5:0.8351712 
5 0:0.5 1:0.14285714 2:4 3:13 4:1 5:0.4963755 
5 0:0.8 1:0.15 2:5 3:18 4:2 5:0.96342455 
5 0:0.071428571 1:0.375 2:1 3:8 4:0 5:0.44583466 
5 0:0.14285714 1:0.16666667 2:0 3:12 4:2 5:1.2784096 
5 0:0.26190476 1:0.13333333 2:2 3:14 4:1 5:0.38648134 
5 0:0.33333333 1:0.5 2:1 3:6 4:0 5:0.10852279 
5 0:0.35714286 1:0.33333333 2:0 3:7 4:2 5:0.2807926 
5 0:0.38095238 1:0.57142857 2:0 3:9 4:2 5:0.10471052 
5 0:0.4047619 1:0.375 2:0 3:9 4:2 5:0.33115101 
5 0:0.42857143 1:0.27272727 2:2 3:11 4:0 5:0.39410378 
5 0:0.61904762 1:0.058823529 2:4 3:19 4:2 5:2.2485972 
5 0:0.19444444 1:0.071428571 2:0 3:13 4:2 5:0.38092253 
5 0:0.58333333 1:0.10526316 2:1 3:35 4:3 5:0.77762445 
5 0:0.67741935 1:0.095238095 2:0 3:21 4:0 5:1.3056835 
5 0:0.38095238 1:0.071428571 2:0 3:10 4:4 5:0.52124288 
5 0:0.71428571 1:0.11764706 2:1 3:14 4:3 5:0.89448951 
5 0:0.76190476 1:0.052631579 2:0 3:15 4:4 5:1.1748547 
5 0:0.0625 1:0.2 2:1 3:10 4:0 5:1.0005758 
5 0:0.29268293 1:0.29411765 2:1 3:17 4:1 5:1.8505233 
5 0:0.3902439 1:0.11111111 2:0 3:10 4:4 5:0.28129522 
5 0:0.70731707 1:0.041666667 2:0 3:22 4:1 5:0.8434263 
5 0:0.34782609 1:0.14285714 2:0 3:14 4:0 5:2.4681026 
5 0:0.15789474 1:0.071428571 2:0 3:15 4:2 5:0.92490593 
5 0:0.36842105 1:0.05 2:0 3:18 4:1 5:1.640485 
5 0:0.63157895 1:0.13043478 2:0 3:17 4:10 5:0.8858671 
5 0:0.058823529 1:0.23529412 2:0 3:16 4:2 5:0.54483016 
5 0:0.078431373 1:0.28571429 2:0 3:11 4:3 5:0.21266582 
5 0:0.43137255 1:0.16666667 2:0 3:11 4:1 5:0.49832209 
5 0:0.50980392 1:0.26666667 2:0 3:26 4:4 5:0.84605442 
5 0:0.81818182 1:0.035714286 2:0 3:27 4:2 5:0.78422285 
5 0:0.30769231 1:0.0625 2:0 3:14 4:1 5:0.32344305 
5 0:0.34615385 1:0 2:2 3:12 4:2 5:0.30361968 
5 0:0.69230769 1:0.16666667 2:0 3:12 4:1 5:0.45510275 
5 0:0.5 1:0.058823529 2:0 3:16 4:2 5:0.41329994 
5 0:0.11538462 1:0.27272727 2:1 3:11 4:0 5:1.3258898 
5 0:0.23076923 1:0.33333333 2:0 3:17 4:0 5:0.53597503 
5 0:0.38461538 1:0.11538462 2:1 3:24 4:2 5:1.7773009 
5 0:0.69230769 1:0.047619048 2:0 3:21 4:0 5:1.0091911 
5 0:0.13333333 1:0.18181818 2:0 3:10 4:2 5:0.15425594 
5 0:0.22222222 1:0.28571429 2:0 3:8 4:2 5:0.11102226 
5 0:0.33333333 1:0.16666667 2:0 3:24 4:6 5:3.5337471 
5 0:0.0625 1:0.25 2:2 3:16 4:0 5:1.2568538 
2.138709625414184 0:0.27083333 1:0 2:0 3:12 4:0 5:1.2499569 
5 0:0.29166667 1:0.1 2:0 3:10 4:0 5:1.0412565 
5 0:0.45833333 1:0 2:0 3:12 4:2 5:0.44388417 
5 0:0.47916667 1:0.0625 2:0 3:16 4:1 5:0.41223636 
5 0:0.5 1:0.125 2:0 3:8 4:0 5:0.46552463 
5 0:0.068181818 1:0.375 2:1 3:7 4:1 5:0.42766544 
5 0:0.40909091 1:0.16666667 2:0 3:14 4:4 5:0.40442006 
5 0:0.72727273 1:0.13793103 2:1 3:23 4:7 5:0.93039814 
5 0:0.88636364 1:0.28571429 2:0 3:13 4:1 5:0.62420334 
5 0:0.61764706 1:0.064516129 2:1 3:31 4:0 5:2.2163457 
5 0:0.35714286 1:0.1 2:0 3:9 4:1 5:0.46768476 
5 0:0.75 1:0.17391304 2:0 3:24 4:2 5:0.69408993 
5 0:0.72 1:0.36363636 2:0 3:11 4:0 5:0.28391908 
5 0:0.5625 1:0.14285714 2:0 3:14 4:0 5:3.7309657 
5 0:0.375 1:0.066666667 2:0 3:15 4:1 5:1.9110497 
5 0:0.78125 1:0.27272727 2:0 3:22 4:0 5:1.5512256 
5 0:0.875 1:0.058823529 2:0 3:18 4:1 5:1.1790218 
5 0:0.085714286 1:0.11111111 2:0 3:19 4:3 5:1.3829937 
5 0:0.57142857 1:0.26666667 2:0 3:16 4:0 5:0.50351258 
5 0:0.68571429 1:0.15384615 2:0 3:12 4:1 5:0.4554935 
5 0:0.59259259 1:0.46666667 2:0 3:16 4:1 5:3.496661 
5 0:0.7037037 1:0.24137931 2:0 3:28 4:8 5:0.89267788 
5 0:0.74074074 1:0.25 2:0 3:4 4:0 5:0.16873057 
5 0:0.36 1:0.090909091 2:0 3:21 4:2 5:0.7121619 
5 0:0.09375 1:0.21428571 2:0 3:14 4:0 5:0.61456471 
5 0:0.28125 1:0.10526316 2:0 3:18 4:1 5:0.5301928 
5 0:0.26190476 1:0.0625 2:2 3:28 4:5 5:1.1743709 
5 0:0.61904762 1:0.33333333 2:0 3:9 4:0 5:0.40287012 
5 0:0.64285714 1:0.25 2:0 3:4 4:0 5:0.1352538 
5 0:0.66666667 1:0.090909091 2:0 3:11 4:2 5:0.31325509 
5 0:0.97619048 1:0.095238095 2:0 3:21 4:5 5:0.69326184 
5 0:0.076923077 1:0.23076923 2:1 3:9 4:4 5:0.4814305 
5 0:0.76923077 1:0.1 2:0 3:10 4:0 5:1.0701913 
5 0:0.0625 1:0.0625 2:0 3:15 4:3 5:0.56974742 
5 0:0.16666667 1:0.055555556 2:0 3:16 4:2 5:0.97423807 
5 0:0.3125 1:0.13333333 2:0 3:15 4:1 5:0.41264799 
5 0:0.33333333 1:0.090909091 2:0 3:10 4:1 5:0.18664756 
5 0:0.72916667 1:0.11111111 2:0 3:9 4:0 5:0.51406812 
5 0:0.41935484 1:0.034482759 2:2 3:28 4:1 5:0.96487499 
5 0:0.28571429 1:0.15789474 2:1 3:17 4:2 5:0.7103643 
5 0:0.57142857 1:0.1875 2:0 3:16 4:1 5:0.86622314 
5 0:0.65306122 1:0.35 2:0 3:19 4:0 5:0.43662257 
5 0:0.44 1:0.14285714 2:0 3:12 4:0 5:0.98467136 
5 0:0.48 1:0.44444444 2:0 3:9 4:0 5:0.19537557 
5 0:0.09375 1:0.3 2:4 3:15 4:5 5:0.54330534 
5 0:0.25 1:0.14285714 2:4 3:20 4:1 5:1.1617587 
5 0:0.875 1:0.15384615 2:1 3:13 4:0 5:1.8505385 
5 0:0.13043478 1:0.27777778 2:1 3:18 4:0 5:1.340935 
5 0:0.47826087 1:0.375 2:0 3:8 4:0 5:1.6704741 
5 0:0.67857143 1:0.05 2:0 3:20 4:0 5:0.85554682 
5 0:0.89285714 1:0.2 2:2 3:5 4:0 5:1.4140864 
5 0:0.085714286 1:0.2 2:0 3:10 4:0 5:0.48483821 
5 0:0.073170732 1:0.22222222 2:1 3:18 4:0 5:0.5855014 
5 0:0.26829268 1:0.083333333 2:0 3:13 4:0 5:0.66863199 
5 0:0.6875 1:0.05 2:0 3:19 4:2 5:0.40070625 
5 0:0.75 1:0.14285714 2:0 3:7 4:1 5:0.177136 
5 0:0.15789474 1:0.18181818 2:0 3:11 4:0 5:0.57725513 
5 0:0.31578947 1:0.10526316 2:0 3:18 4:2 5:8.8716247 
5 0:0.36842105 1:0.125 2:0 3:10 4:5 5:0.49223242 
5 0:0.31818182 1:0.21428571 2:0 3:12 4:0 5:2.8937146 
5 0:0.1754386 1:0.17391304 2:1 3:23 4:0 5:0.53580116 
5 0:0.38596491 1:0.15789474 2:2 3:19 4:0 5:0.61266776 
5 0:0.52631579 1:0 2:0 3:12 4:6 5:0.55795643 
5 0:0.54385965 1:0.090909091 2:0 3:10 4:2 5:0.35638673 
5 0:0.096774194 1:0.25 2:0 3:14 4:2 5:0.5535422 
5 0:0.29032258 1:0.052631579 2:0 3:18 4:1 5:7.6786183 
5 0:0.70967742 1:0.23529412 2:3 3:15 4:1 5:0.46373516 
5 0:0.66666667 1:0.16 2:3 3:24 4:0 5:3.2208215 
5 0:0.5 1:0.23809524 2:1 3:20 4:6 5:2.5039963 
5 0:0.45833333 1:0.1 2:0 3:10 4:0 5:0.23668837 
5 0:0.625 1:0.27272727 2:0 3:30 4:1 5:2.8086595 
5 0:0.20454545 1:0.066666667 2:1 3:18 4:0 5:2.824607 
5 0:0.10714286 1:0.083333333 2:0 3:14 4:6 5:0.27905842 
5 0:0.21428571 1:0.08 2:0 3:27 4:6 5:1.8934026 
5 0:0.38461538 1:0.25 2:0 3:8 4:0 5:0.25115413 
5 0:0.88461538 1:0.2 2:0 3:10 4:0 5:0.48407122 
5 0:0.6097561 1:0.18181818 2:0 3:10 4:3 5:1.3272279 
5 0:0.15384615 1:0.11111111 2:0 3:18 4:2 5:0.84356225 
5 0:0.80769231 1:0.2 2:0 3:12 4:1 5:0.33773884 
5 0:0.096774194 1:0.2 2:1 3:15 4:1 5:0.97168684 
5 0:0.25806452 1:0.15789474 2:0 3:19 4:0 5:0.36838836 
5 0:0.27272727 1:0.2 2:0 3:15 4:0 5:0.48775783 
5 0:0.15625 1:0.066666667 2:0 3:12 4:3 5:0.75778011 
5 0:0.1875 1:0.1 2:0 3:19 4:1 5:1.8209442 
5 0:0.13636364 1:0.17647059 2:0 3:15 4:2 5:2.2964401 
5 0:0.13333333 1:0.375 2:0 3:8 4:0 5:0.35691772 
5 0:0.15555556 1:0.15789474 2:0 3:19 4:1 5:0.59090633 
5 0:0.86666667 1:0.18181818 2:0 3:11 4:0 5:0.69724214 
5 0:0.88888889 1:0.17647059 2:0 3:17 4:1 5:0.60569 
5 0:0.11111111 1:0.1875 2:0 3:14 4:2 5:0.75266933 
5 0:0.7037037 1:0.3 2:0 3:9 4:1 5:1.5857305 
5 0:0.74074074 1:0.11764706 2:1 3:17 4:0 5:0.84997421 
5 0:0.34285714 1:0.038461538 2:1 3:25 4:0 5:0.71212435 
5 0:0.45714286 1:0.11111111 2:2 3:17 4:6 5:0.86600541 
5 0:0.65714286 1:0.071428571 2:1 3:14 4:0 5:0.54436023 
5 0:0.096774194 1:0.21428571 2:0 3:11 4:3 5:0.25098819 
5 0:0.09375 1:0.16666667 2:0 3:12 4:0 5:0.81433789 
5 0:0.5625 1:0.16666667 2:1 3:28 4:4 5:3.8616601 
5 0:0.65625 1:0.058823529 2:0 3:17 4:0 5:0.4264295 
5 0:0.35897436 1:0.15384615 2:0 3:12 4:0 5:1.8229785 
5 0:0.43589744 1:0.33333333 2:0 3:4 4:0 5:0.28853383 
5 0:0.46153846 1:0.0625 2:0 3:17 4:3 5:0.50865768 
5 0:0.8974359 1:0.08 2:0 3:23 4:4 5:1.9566894 
5 0:0.39285714 1:0.28571429 2:3 3:7 4:0 5:0.82555898 
5 0:0.5 1:0.22222222 2:2 3:9 4:0 5:0.14051837 
5 0:0.75 1:0.18181818 2:2 3:11 4:0 5:0.9444922 
5 0:0.44897959 1:0 2:0 3:17 4:3 5:1.2574185 
5 0:0.89795918 1:0.25 2:0 3:18 4:3 5:0.90421234 
5 0:0.16 1:0.21052632 2:0 3:35 4:2 5:1.3917862 
5 0:0.36 1:0.21428571 2:1 3:28 4:0 5:0.7256691 
5 0:0.058823529 1:0.18181818 2:2 3:10 4:2 5:2.4628606 
5 0:0.078431373 1:0.7 2:0 3:10 4:0 5:0.39039523 
5 0:0.17647059 1:0.052631579 2:0 3:20 4:7 5:0.79320101 
5 0:0.19607843 1:0.16666667 2:1 3:10 4:8 5:1.9566302 
5 0:0.48571429 1:0.058823529 2:1 3:17 4:1 5:0.74899904 
5 0:0.17021277 1:0.076923077 2:3 3:12 4:1 5:0.5919582 
5 0:0.42553191 1:0.22222222 2:0 3:9 4:1 5:0.89680275 
5 0:0.44680851 1:0.058823529 2:1 3:16 4:1 5:2.8739337 
5 0:0.46808511 1:0.33333333 2:0 3:6 4:0 5:1.4917541 
5 0:0.55319149 1:0.25 2:2 3:12 4:0 5:1.1999567 
5 0:0.2 1:0.13043478 2:0 3:22 4:2 5:1.3550436 
5 0:0.53333333 1:0.125 2:0 3:8 4:0 5:0.31912326 
5 0:0.25806452 1:0.052631579 2:0 3:19 4:0 5:1.0401642 
5 0:0.48387097 1:0.27272727 2:0 3:11 4:0 5:1.42606 
5 0:0.51612903 1:0.21428571 2:0 3:13 4:2 5:6.2506996 
5 0:0.80645161 1:0.33333333 2:1 3:6 4:0 5:0.23335735 
5 0:0.057692308 1:0.125 2:1 3:15 4:2 5:0.29348771 
5 0:0.26923077 1:0.35714286 2:0 3:14 4:0 5:0.11948651 
5 0:0.42307692 1:0.27272727 2:5 3:11 4:1 5:0.34623095 
5 0:0.39130435 1:0.21428571 2:0 3:14 4:0 5:1.4043086 
5 0:0.43478261 1:0.30769231 2:0 3:12 4:1 5:0.4190517 
5 0:0.11538462 1:0.13333333 2:0 3:15 4:1 5:0.39191531 
5 0:0.69230769 1:0.16 2:1 3:24 4:1 5:0.93625857 
5 0:0.0625 1:0.1875 2:0 3:16 4:5 5:1.0286621 
5 0:0.16666667 1:0.27272727 2:1 3:22 4:0 5:1.924315 
5 0:0.057692308 1:0.26666667 2:0 3:15 4:0 5:0.61209001 
5 0:0.80769231 1:0.18181818 2:0 3:11 4:0 5:0.57637662 
5 0:0.076923077 1:0.18181818 2:0 3:11 4:0 5:0.32370831 
5 0:0.10344828 1:0.33333333 2:0 3:9 4:0 5:0.28801008 
5 0:0.076923077 1:0.071428571 2:1 3:14 4:1 5:0.5606188 
5 0:0.33333333 1:0.05 2:0 3:19 4:1 5:0.56364529 
5 0:0.35897436 1:0.071428571 2:0 3:14 4:0 5:0.262368 
5 0:0.58974359 1:0.086956522 2:0 3:21 4:2 5:1.3948321 
5 0:0.26923077 1:0.18181818 2:0 3:10 4:2 5:0.3383342 
5 0:0.84615385 1:0.2 2:1 3:13 4:2 5:0.4806517 
5 0:0.16666667 1:0.18181818 2:1 3:21 4:1 5:2.179819 
5 0:0.55555556 1:0.38461538 2:1 3:13 4:0 5:0.24804708 
5 0:0.46666667 1:0.11111111 2:0 3:9 4:0 5:1.4020283 
5 0:0.73333333 1:0.083333333 2:0 3:12 4:1 5:2.1683931 
5 0:0.8 1:0.1 2:1 3:17 4:3 5:0.66863045 
5 0:0.83333333 1:0.076923077 2:0 3:13 4:0 5:0.66885838 
5 0:0.20689655 1:0.10526316 2:1 3:20 4:1 5:0.66952708 
5 0:0.20512821 1:0.23076923 2:2 3:12 4:1 5:0.33092149 
5 0:0.69230769 1:0.3 2:0 3:20 4:0 5:0.6643314 
5 0:0.82051282 1:0.14285714 2:0 3:6 4:1 5:0.11906488 
5 0:0.84615385 1:0.4 2:0 3:10 4:0 5:0.21378952 
5 0:0.088235294 1:0.15384615 2:2 3:12 4:1 5:0.59519538 
5 0:0.35294118 1:0.26315789 2:0 3:19 4:0 5:0.58105227 
5 0:0.3 1:0.33333333 2:0 3:12 4:0 5:1.3381401 
5 0:0.1025641 1:0.42857143 2:2 3:6 4:1 5:0.45288442 
5 0:0.17948718 1:0.076923077 2:2 3:11 4:3 5:1.2500315 
5 0:0.15384615 1:0.28 2:1 3:22 4:5 5:2.7597071 
5 0:0.30769231 1:0.23076923 2:0 3:14 4:2 5:1.683356 
5 0:0.61538462 1:0.076923077 2:0 3:26 4:1 5:5.1380869 
5 0:0.096774194 1:0.33333333 2:0 3:12 4:0 5:0.44952218 
5 0:0.77419355 1:0.1 2:0 3:9 4:1 5:0.44606001 
5 0:0.26470588 1:0.5 2:1 3:4 4:0 5:0.21933597 
5 0:0.29411765 1:0.18181818 2:2 3:22 4:0 5:0.58415917 
5 0:0.73529412 1:0.15789474 2:0 3:17 4:2 5:0.59470954 
5 0:0.48148148 1:0.17647059 2:0 3:16 4:0 5:2.6025616 
5 0:0.34210526 1:0.11111111 2:0 3:18 4:0 5:0.79222557 
5 0:0.16666667 1:0.05 2:2 3:19 4:3 5:1.5865181 
5 0:0.44444444 1:0.095238095 2:2 3:17 4:4 5:1.1994402 
5 0:0.55555556 1:0.17647059 2:5 3:17 4:4 5:1.0412056 
5 0:0.2 1:0.08 2:0 3:23 4:2 5:0.9028264 
5 0:0.15 1:0.13333333 2:0 3:15 4:0 5:1.8844485 
5 0:0.7 1:0 2:0 3:15 4:0 5:0.78894007 
5 0:0.058823529 1:0.125 2:0 3:18 4:0 5:0.65377222 
5 0:0.37254902 1:0.10344828 2:0 3:29 4:2 5:1.6966749 
5 0:0.36956522 1:0.15384615 2:0 3:25 4:3 5:0.44843653 
5 0:0.5 1:0.083333333 2:0 3:11 4:0 5:2.0637832 
5 0:0.071428571 1:0.055555556 2:0 3:16 4:2 5:0.96719838 
5 0:0.16666667 1:0.33333333 2:1 3:7 4:3 5:0.77880757 
5 0:0.76470588 1:0.1 2:0 3:19 4:1 5:1.3646162 
5 0:0.12121212 1:0.25 2:0 3:12 4:0 5:0.28690663 
5 0:0.39393939 1:0.18181818 2:0 3:11 4:1 5:0.59909967 
5 0:0.058823529 1:0.21428571 2:1 3:14 4:1 5:0.68203996 
5 0:0.64705882 1:0.125 2:0 3:24 4:1 5:1.2030036 
5 0:0.82352941 1:0.060606061 2:0 3:32 4:2 5:1.7894499 
5 0:0.10714286 1:0.23076923 2:0 3:13 4:0 5:0.30196649 
5 0:0.64285714 1:0.23076923 2:1 3:12 4:0 5:0.79539347 
5 0:0.67857143 1:0.08 2:0 3:24 4:1 5:0.66694356 
5 0:0.71428571 1:0.14285714 2:0 3:12 4:2 5:0.48342676 
5 0:0.13636364 1:0.066666667 2:0 3:14 4:2 5:0.46595275 
5 0:0.31818182 1:0.041666667 2:1 3:27 4:4 5:0.64549393 
5 0:0.053571429 1:0.22222222 2:2 3:18 4:0 5:0.69628363 
5 0:0.25 1:0.037037037 2:1 3:27 4:0 5:3.0242249 
5 0:0.13043478 1:0.086956522 2:0 3:26 4:5 5:1.2650993 
5 0:0.15217391 1:0.076923077 2:0 3:12 4:3 5:1.2559542 
5 0:0.17391304 1:0.2 2:0 3:11 4:1 5:0.74520017 
5 0:0.7173913 1:0 2:0 3:13 4:0 5:0.45733333 
5 0:0.22580645 1:0.15384615 2:0 3:13 4:0 5:0.51899284 
5 0:0.51612903 1:0.052631579 2:0 3:19 4:0 5:0.67799272 
5 0:0.5483871 1:0.0625 2:0 3:18 4:0 5:0.53547027 
5 0:0.066666667 1:0.28571429 2:0 3:14 4:0 5:0.94268949 
5 0:0.55555556 1:0.125 2:0 3:27 4:4 5:1.1301245 
5 0:0.13207547 1:0.125 2:0 3:15 4:1 5:0.43719246 
5 0:0.28301887 1:0.11111111 2:0 3:17 4:1 5:0.53752197 
5 0:0.30188679 1:0 2:0 3:22 4:2 5:0.89465812 
5 0:0.43396226 1:0.23529412 2:2 3:16 4:1 5:0.37225447 
5 0:0.75471698 1:0.375 2:0 3:8 4:0 5:0.55951721 
5 0:0.12 1:0.2 2:0 3:9 4:1 5:0.3282349 
5 0:0.41666667 1:0.064516129 2:0 3:30 4:1 5:4.2153515 
5 0:0.45833333 1:0.058823529 2:2 3:15 4:0 5:0.89833649 
5 0:0.3 1:0.20833333 2:1 3:23 4:1 5:1.0470638 
5 0:0.22580645 1:0.090909091 2:0 3:30 4:2 5:3.9501958 
5 0:0.48387097 1:0.15384615 2:0 3:13 4:0 5:0.48887887 
5 0:0.90322581 1:0.10526316 2:1 3:18 4:1 5:0.4417672 
5 0:0.31578947 1:0.36 2:1 3:24 4:0 5:0.51934543 
5 0:0.78947368 1:0.125 2:2 3:17 4:0 5:1.9567655 
5 0:0.46153846 1:0.14285714 2:0 3:20 4:0 5:0.42618842 
5 0:0.48717949 1:0.2 2:2 3:20 4:0 5:2.3752306 
5 0:0.2173913 1:0.11363636 2:1 3:46 4:3 5:5.1836555 
5 0:0.39130435 1:0.28 2:0 3:23 4:2 5:1.1393549 
5 0:0.73913043 1:0.33333333 2:0 3:8 4:0 5:0.26173855 
5 0:0.46153846 1:0.28571429 2:0 3:7 4:0 5:0.44052857 
5 0:0.61538462 1:0.28571429 2:0 3:7 4:0 5:0.11736499 
5 0:0.64102564 1:0.18181818 2:0 3:20 4:2 5:1.0721766 
5 0:0.085714286 1:0.05 2:3 3:17 4:3 5:0.33239287 
5 0:0.06122449 1:0.14285714 2:0 3:14 4:0 5:0.65390658 
5 0:0.075 1:0.27272727 2:0 3:11 4:0 5:0.25021214 
5 0:0.36734694 1:0.11111111 2:0 3:9 4:0 5:0.54096001 
5 0:0.53061224 1:0.2 2:0 3:17 4:3 5:0.39081511 
5 0:0.55102041 1:0.11764706 2:1 3:16 4:5 5:1.4411866 
5 0:0.20689655 1:0.28571429 2:0 3:12 4:0 5:0.44099004 
5 0:0.68965517 1:0.15384615 2:0 3:12 4:1 5:0.37050484 
5 0:0.24137931 1:0.066666667 2:1 3:16 4:0 5:2.2688308 
5 0:0.46153846 1:0.1875 2:0 3:13 4:1 5:0.31769753 
5 0:0.5 1:0.14285714 2:0 3:8 4:2 5:0.1310021 
5 0:0.15 1:0.13333333 2:0 3:15 4:1 5:0.83513591 
5 0:0.3 1:0.13636364 2:0 3:23 4:2 5:3.4844935 
5 0:0.11111111 1:0.045454545 2:0 3:22 4:4 5:0.95739367 
5 0:0.96296296 1:0.066666667 2:0 3:15 4:3 5:0.68458475 
5 0:0.13461538 1:0.055555556 2:0 3:18 4:0 5:0.65286434 
5 0:0.46153846 1:0.083333333 2:0 3:12 4:0 5:0.40543461 
5 0:0.15789474 1:0.25 2:1 3:12 4:1 5:0.43670102 
5 0:0.36842105 1:0.08 2:0 3:24 4:1 5:0.85105693 
5 0:0.14705882 1:0.16666667 2:0 3:17 4:1 5:0.97920039 
5 0:0.29411765 1:0.2 2:0 3:13 4:3 5:1.4524741 
5 0:0.32352941 1:0.055555556 2:0 3:17 4:2 5:0.73568797 
5 0:0.35294118 1:0.16666667 2:0 3:17 4:3 5:0.7107474 
5 0:0.58823529 1:0.1875 2:1 3:16 4:0 5:1.0354601 
5 0:0.32432432 1:0.25 2:0 3:8 4:0 5:0.35519704 
5 0:0.94594595 1:0.21428571 2:0 3:13 4:1 5:0.37965092 
5 0:0.18181818 1:0.13333333 2:0 3:13 4:4 5:0.65167485 
5 0:0.42424242 1:0.041666667 2:1 3:23 4:1 5:0.84215036 
5 0:0.75757576 1:0.2 2:0 3:14 4:2 5:0.48256059 
5 0:0.36842105 1:0.38888889 2:0 3:16 4:0 5:0.89484194 
5 0:0.096774194 1:0.2 2:0 3:10 4:0 5:1.1042796 
5 0:0.5483871 1:0.055555556 2:0 3:18 4:1 5:2.3189705 
5 0:0.071428571 1:0.25 2:0 3:24 4:0 5:1.4581589 
5 0:0.28571429 1:0.15384615 2:0 3:12 4:2 5:1.223236 
5 0:0.33333333 1:0.21428571 2:0 3:14 4:0 5:0.18099675 
5 0:0.35714286 1:0.28571429 2:0 3:7 4:0 5:0.4324293 
5 0:0.5 1:0.076923077 2:0 3:10 4:2 5:1.4753228 
5 0:0.88461538 1:0.11111111 2:3 3:16 4:1 5:0.92500618 
5 0:0.12 1:0.29411765 2:1 3:16 4:0 5:1.8575416 
5 0:0.24 1:0.22222222 2:1 3:27 4:2 5:1.2793489 
5 0:0.56 1:0.23809524 2:1 3:20 4:0 5:0.66770504 
5 0:0.96 1:0.23529412 2:1 3:17 4:4 5:0.98292491 
5 0:0.14285714 1:0.23076923 2:4 3:12 4:1 5:1.0159083 
5 0:0.29032258 1:0.052631579 2:0 3:15 4:4 5:0.47346437 
5 0:0.32258065 1:0.083333333 2:0 3:11 4:2 5:0.25690987 
5 0:0.64516129 1:0.076923077 2:1 3:7 4:6 5:0.33441239 
5 0:0.67741935 1:0.22727273 2:1 3:21 4:1 5:1.2479479 
5 0:0.086956522 1:0.23076923 2:0 3:12 4:2 5:0.52367689 
5 0:0.26086957 1:0.058823529 2:0 3:17 4:0 5:1.5089878 
5 0:0.39130435 1:0.076923077 2:1 3:13 4:0 5:0.65955653 
5 0:0.63043478 1:0.28571429 2:0 3:7 4:0 5:0.24158035 
5 0:0.65217391 1:0.2 2:0 3:5 4:0 5:0.36118097 
5 0:0.081081081 1:0.0625 2:0 3:12 4:4 5:0.48662987 
5 0:0.16216216 1:0.1875 2:0 3:15 4:1 5:0.39738549 
5 0:0.2972973 1:0.16666667 2:1 3:11 4:1 5:0.28484513 
5 0:0.51351351 1:0.15384615 2:1 3:12 4:1 5:0.95697736 
5 0:0.085714286 1:0.18181818 2:0 3:10 4:1 5:0.32131966 
5 0:0.075 1:0.26315789 2:0 3:18 4:1 5:0.81906143 
5 0:0.2 1:0.14285714 2:1 3:13 4:1 5:0.76166772 
5 0:0.9 1:0.33333333 2:0 3:9 4:0 5:0.13711045 
5 0:0.925 1:0.375 2:0 3:8 4:1 5:0.56953952 
5 0:0.5 1:0.2 2:1 3:10 4:0 5:0.61049387 
5 0:0.21875 1:0.21052632 2:0 3:19 4:0 5:0.84335223 
5 0:0.078947368 1:0.3 2:1 3:10 4:0 5:0.61238608 
5 0:0.23684211 1:0.10526316 2:0 3:17 4:6 5:1.1025928 
5 0:0.26315789 1:0.083333333 2:0 3:12 4:0 5:2.0345583 
5 0:0.65789474 1:0.14285714 2:0 3:21 4:1 5:0.36810085 
5 0:0.19354839 1:0.076923077 2:0 3:14 4:2 5:0.3568599 
5 0:0.22580645 1:0.08 2:0 3:19 4:6 5:1.6611997 
5 0:0.38709677 1:0.11764706 2:0 3:18 4:3 5:0.3991859 
5 0:0.70967742 1:0.066666667 2:0 3:29 4:0 5:2.0963592 
5 0:0.081632653 1:0.29411765 2:1 3:16 4:1 5:0.4287564 
5 0:0.16326531 1:0.17647059 2:1 3:16 4:0 5:0.69433966 
5 0:0.51020408 1:0 2:0 3:13 4:0 5:1.6188504 
5 0:0.24 1:0.25 2:0 3:15 4:7 5:0.6394596 
5 0:0.4 1:0.090909091 2:0 3:11 4:0 5:0.33953718 
5 0:0.44 1:0.125 2:0 3:15 4:2 5:0.58116563 
5 0:0.52083333 1:0.22222222 2:0 3:18 4:2 5:1.1254649 
5 0:0.10344828 1:0.30769231 2:1 3:13 4:0 5:1.2717267 
5 0:0.51724138 1:0.11111111 2:3 3:15 4:2 5:0.60156492 
5 0:0.21052632 1:0.29411765 2:0 3:18 4:2 5:1.7923438 
5 0:0.056603774 1:0.33333333 2:0 3:9 4:0 5:0.27154247 
5 0:0.20754717 1:0.071428571 2:0 3:12 4:0 5:0.33098535 
5 0:0.088235294 1:0.35714286 2:0 3:11 4:2 5:0.25094226 
5 0:0.14705882 1:0.31578947 2:0 3:18 4:1 5:1.2252413 
5 0:0.20588235 1:0.15384615 2:0 3:12 4:1 5:0.38710339 
5 0:0.73529412 1:0.041666667 2:0 3:20 4:2 5:0.56409125 
5 0:0.088235294 1:0.13333333 2:0 3:14 4:1 5:0.61265542 
5 0:0.26470588 1:0.055555556 2:0 3:14 4:5 5:0.78078354 
5 0:0.47058824 1:0.083333333 2:0 3:12 4:0 5:0.47833269 
5 0:0.069767442 1:0.16666667 2:1 3:24 4:0 5:1.3577069 
5 0:0.13953488 1:0.2 2:0 3:19 4:4 5:1.5954985 
5 0:0.90625 1:0.086956522 2:0 3:20 4:3 5:0.90907395 
5 0:0.37837838 1:0.10810811 2:10 3:37 4:2 5:2.2877829 
5 0:0.67567568 1:0.08 2:5 3:20 4:3 5:0.80974495 
5 0:0.13636364 1:0.18181818 2:0 3:11 4:0 5:0.520546 
5 0:0.75 1:0.19047619 2:0 3:21 4:0 5:0.58178341 
5 0:0.083333333 1:0.5 2:0 3:4 4:0 5:0.52352166 
5 0:0.11111111 1:0.26666667 2:0 3:15 4:0 5:0.77481079 
5 0:0.25 1:0.15384615 2:0 3:11 4:2 5:1.9357337 
5 0:0.27777778 1:0.28571429 2:0 3:7 4:1 5:0.062950652 
5 0:0.36111111 1:0.058823529 2:0 3:15 4:3 5:2.4368724 
5 0:0.096774194 1:0.22222222 2:0 3:9 4:0 5:0.44625833 
5 0:0.58064516 1:0.33333333 2:0 3:3 4:0 5:0.13351813 
5 0:0.11111111 1:0.076923077 2:2 3:16 4:2 5:1.071819 
5 0:0.22222222 1:0.066666667 2:2 3:18 4:2 5:1.0820492 
5 0:0.24528302 1:0.25 2:0 3:22 4:2 5:0.68981214 
5 0:0.34042553 1:0.090909091 2:0 3:11 4:0 5:1.0493156 
5 0:0.38297872 1:0.15384615 2:0 3:13 4:1 5:1.1189934 
5 0:0.55319149 1:0.045454545 2:0 3:21 4:1 5:2.2547204 
5 0:0.57446809 1:0.125 2:0 3:7 4:2 5:0.97158218 
5 0:0.85106383 1:0.2 2:0 3:11 4:0 5:2.765596 
5 0:0.068181818 1:0.3 2:0 3:10 4:0 5:0.14066249 
5 0:0.75 1:0.21052632 2:0 3:19 4:0 5:3.4843789 
5 0:0.90909091 1:0.29411765 2:0 3:18 4:2 5:0.47010095 
5 0:0.1 1:0.22222222 2:2 3:9 4:0 5:1.4599808 
5 0:0.23333333 1:0 2:0 3:16 4:1 5:1.8648444 
5 0:0.63333333 1:0.2 2:0 3:6 4:2 5:1.1525552 
5 0:0.35135135 1:0.11111111 2:1 3:9 4:0 5:1.6747762 
5 0:0.23529412 1:0.1 2:1 3:31 4:2 5:4.7284592 
5 0:0.09375 1:0.125 2:0 3:15 4:0 5:1.2310271 
5 0:0.25 1:0.21428571 2:3 3:28 4:0 5:1.3235762 
5 0:0.28125 1:0.083333333 2:1 3:12 4:0 5:1.251676 
5 0:0.3125 1:0.090909091 2:0 3:10 4:0 5:0.2387517 
5 0:0.15789474 1:0.16666667 2:0 3:21 4:3 5:1.141602 
5 0:0.70175439 1:0.25 2:0 3:4 4:0 5:0.046782401 
5 0:0.049180328 1:0.16666667 2:1 3:12 4:0 5:0.33235585 
5 0:0.16393443 1:0.0625 2:0 3:17 4:0 5:0.37257502 
5 0:0.67213115 1:0.095238095 2:0 3:20 4:4 5:0.76598003 
5 0:0.68852459 1:0.25 2:2 3:7 4:1 5:0.41225604 
5 0:0.8852459 1:0.083333333 2:1 3:11 4:1 5:0.27375771 
5 0:0.90163934 1:0.1 2:3 3:18 4:2 5:0.84605274 
5 0:0.073170732 1:0.33333333 2:0 3:10 4:0 5:1.2478344 
5 0:0.26829268 1:0.42857143 2:1 3:7 4:0 5:0.43919731 
5 0:0.26923077 1:0.083333333 2:0 3:22 4:2 5:0.72188174 
5 0:0.12244898 1:0.18181818 2:0 3:11 4:0 5:1.7027082 
5 0:0.28571429 1:0.1 2:0 3:10 4:0 5:0.72022886 
5 0:0.30612245 1:0 2:0 3:14 4:2 5:0.45747337 
5 0:0.73333333 1:0.25 2:1 3:12 4:0 5:1.4090687 
5 0:0.8 1:0.38461538 2:0 3:13 4:0 5:10.424479 
5 0:0.35 1:0.2 2:0 3:32 4:0 5:1.2622334 
5 0:0.33333333 1:0.26086957 2:0 3:22 4:2 5:0.77220129 
5 0:0.7037037 1:0.11764706 2:1 3:16 4:1 5:0.59163466 
5 0:0.96296296 1:0.11111111 2:0 3:21 4:7 5:0.58591736 
5 0:0.076923077 1:0.13333333 2:0 3:14 4:0 5:1.270637 
5 0:0.063829787 1:0.15384615 2:0 3:12 4:2 5:0.70625819 
5 0:0.25531915 1:0.18181818 2:1 3:9 4:2 5:0.46046217 
5 0:0.27659574 1:0.23076923 2:1 3:13 4:1 5:0.17246413 
5 0:0.36111111 1:0.12903226 2:0 3:27 4:4 5:1.4169759 
5 0:0.15789474 1:0.17647059 2:5 3:14 4:3 5:0.51929453 
5 0:0.096774194 1:0.25 2:0 3:19 4:1 5:2.6022361 
5 0:0.19354839 1:0.11111111 2:1 3:10 4:2 5:0.14358579 
5 0:0.38709677 1:0.15384615 2:1 3:13 4:0 5:1.7346712 
5 0:0.41935484 1:0.28571429 2:1 3:14 4:1 5:0.39112579 
5 0:0.4516129 1:0.33333333 2:0 3:9 4:0 5:1.279322 
5 0:0.74193548 1:0.3125 2:1 3:14 4:0 5:1.0671396 
5 0:0.77419355 1:0.21428571 2:1 3:14 4:0 5:0.70604464 
5 0:0.13333333 1:0.15384615 2:0 3:10 4:3 5:2.266918 
5 0:0.63333333 1:0.11111111 2:0 3:9 4:0 5:0.37138665 
5 0:0.29787234 1:0.25 2:1 3:19 4:1 5:0.53760223 
5 0:0.40425532 1:0.25 2:0 3:7 4:1 5:0.7519896 
5 0:0.11538462 1:0.16666667 2:1 3:12 4:0 5:0.72700827 
5 0:0.23076923 1:0.14285714 2:2 3:14 4:0 5:1.2108083 
5 0:0.57692308 1:0.14285714 2:0 3:7 4:0 5:0.1637862 
5 0:0.40740741 1:0.15625 2:2 3:34 4:1 5:2.1888184 
5 0:0.13157895 1:0.11538462 2:0 3:25 4:1 5:2.4067352 
5 0:0.36842105 1:0.041666667 2:0 3:18 4:5 5:0.54535927 
5 0:0.32142857 1:0.17391304 2:6 3:21 4:2 5:1.8661671 
5 0:0.35714286 1:0.090909091 2:3 3:21 4:4 5:6.2042194 
5 0:0.71428571 1:0.090909091 2:1 3:11 4:0 5:1.8420135 
5 0:0.75 1:0.086956522 2:1 3:20 4:3 5:1.6003813 
5 0:0.19354839 1:0.071428571 2:0 3:14 4:0 5:0.36732793 
5 0:0.35483871 1:0.13333333 2:1 3:15 4:1 5:1.649164 
5 0:0.38709677 1:0.16 2:0 3:24 4:2 5:1.0731211 
5 0:0.41935484 1:0.33333333 2:0 3:4 4:2 5:0.10521636 
5 0:0.38095238 1:0.041666667 2:2 3:24 4:0 5:1.6581535 
5 0:0.090909091 1:0.2 2:0 3:13 4:0 5:0.41878136 
5 0:0.12121212 1:0.27777778 2:1 3:18 4:1 5:1.0481465 
5 0:0.1875 1:0.28571429 2:0 3:13 4:1 5:0.34730902 
5 0:0.4375 1:0.14285714 2:0 3:14 4:0 5:0.38276066 
5 0:0.5 1:0.1 2:0 3:30 4:5 5:1.7299901 
5 0:0.14285714 1:0.058823529 2:0 3:17 4:0 5:2.4205388 
5 0:0.35714286 1:0.076923077 2:0 3:13 4:0 5:2.9579686 
5 0:0.041666667 1:0.125 2:0 3:16 4:0 5:0.61341202 
5 0:0.59722222 1:0.13333333 2:0 3:15 4:0 5:0.39609847 
5 0:0.61111111 1:0.125 2:0 3:8 4:0 5:0.65635894 
5 0:0.12 1:0.30769231 2:2 3:12 4:1 5:0.35816864 
5 0:0.84 1:0.14285714 2:8 3:20 4:1 5:0.94672205 
5 0:0.71428571 1:0.16666667 2:0 3:23 4:1 5:1.0739153 
5 0:0.89285714 1:0.16666667 2:0 3:11 4:1 5:0.6069997 
5 0:0.06 1:0.076923077 2:1 3:12 4:1 5:0.34684083 
5 0:0.2 1:0.15789474 2:0 3:16 4:3 5:0.46595628 
5 0:0.24 1:0.21052632 2:0 3:18 4:0 5:0.61238761 
5 0:0.066666667 1:0.30769231 2:1 3:12 4:1 5:1.2235856 
5 0:0.71111111 1:0.11111111 2:0 3:18 4:0 5:1.1695695 
5 0:0.39130435 1:0.055555556 2:1 3:17 4:5 5:2.9773926 
5 0:0.071428571 1:0.4 2:1 3:21 4:0 5:0.55036597 
5 0:0.095238095 1:0.5 2:1 3:9 4:0 5:0.13324061 
5 0:0.4047619 1:0.05 2:3 3:19 4:1 5:1.1656347 
5 0:0.64285714 1:0.25 2:0 3:12 4:0 5:0.27539781 
5 0:0.11111111 1:0.076923077 2:0 3:12 4:1 5:0.23512778 
5 0:0.37037037 1:0.33333333 2:0 3:9 4:0 5:0.30964126 
5 0:0.59259259 1:0.076923077 2:0 3:28 4:7 5:1.1045501 
5 0:0.2 1:0.19047619 2:0 3:20 4:4 5:1.8037451 
5 0:0.36666667 1:0.13333333 2:0 3:17 4:2 5:0.90923072 
5 0:0.048387097 1:0.066666667 2:0 3:15 4:0 5:0.3255854 
5 0:0.14516129 1:0.090909091 2:1 3:11 4:1 5:0.83851466 
5 0:0.29032258 1:0.090909091 2:0 3:11 4:0 5:0.77038966 
5 0:0.3 1:0.2 2:0 3:15 4:0 5:0.32683474 
5 0:0.59615385 1:0.28571429 2:0 3:14 4:0 5:1.180824 
5 0:0.61538462 1:0.14285714 2:0 3:7 4:0 5:0.12040289 
5 0:0.63461538 1:0.18181818 2:0 3:12 4:0 5:0.23864205 
5 0:0.90384615 1:0.36363636 2:0 3:10 4:1 5:0.45690457 
5 0:0.48148148 1:0.22222222 2:1 3:9 4:0 5:0.96134921 
5 0:0.34210526 1:0.11111111 2:4 3:26 4:0 5:0.92325732 
5 0:0.44736842 1:0 2:1 3:19 4:3 5:1.2217232 
5 0:0.525 1:0.1 2:0 3:21 4:2 5:1.9313736 
5 0:0.55 1:0.33333333 2:0 3:3 4:0 5:0.029676601 
5 0:0.35416667 1:0.066666667 2:1 3:15 4:0 5:0.33876312 
5 0:0.47916667 1:0 2:0 3:19 4:7 5:0.46780645 
5 0:0.14705882 1:0.17647059 2:1 3:16 4:0 5:1.7101656 
5 0:0.52941176 1:0.10714286 2:0 3:25 4:6 5:0.8029365 
5 0:0.64705882 1:0 2:0 3:17 4:3 5:0.53562256 
5 0:0.18518519 1:0.15789474 2:0 3:19 4:1 5:0.8918256 
5 0:0.35185185 1:0.15384615 2:1 3:15 4:0 5:0.4887348 
5 0:0.44444444 1:0.11111111 2:1 3:26 4:3 5:2.6149454 
5 0:0.98148148 1:0.10526316 2:0 3:19 4:1 5:0.66394807 
5 0:0.096774194 1:0.055555556 2:1 3:17 4:2 5:1.8825292 
5 0:0.16129032 1:0.23076923 2:1 3:12 4:0 5:0.41563769 
5 0:0.77419355 1:0 2:0 3:9 4:1 5:0.96659151 
5 0:0.085714286 1:0.2 2:2 3:10 4:0 5:0.90272886 
5 0:0.34285714 1:0.19444444 2:9 3:34 4:3 5:5.0151565 
5 0:0.6 1:0.18181818 2:0 3:11 4:0 5:0.5786695 
5 0:0.65714286 1:0.46153846 2:1 3:11 4:1 5:1.4323331 
5 0:0.11111111 1:0.13333333 2:0 3:11 4:5 5:0.84409613 
5 0:0.37037037 1:0.04 2:0 3:23 4:2 5:1.1379989 
5 0:0.40740741 1:0.076923077 2:0 3:13 4:1 5:1.4012359 
5 0:0.51851852 1:0.090909091 2:0 3:10 4:1 5:0.88939492 
5 0:0.55555556 1:0.22727273 2:1 3:20 4:3 5:3.7089721 
5 0:0.083333333 1:0.11538462 2:2 3:22 4:3 5:1.3334968 
5 0:0.60416667 1:0.08 2:0 3:22 4:1 5:0.59758096 
5 0:0.625 1:0.16666667 2:0 3:31 4:3 5:1.3999464 
5 0:0.77083333 1:0.28571429 2:1 3:13 4:1 5:0.84008268 
5 0:0.79166667 1:0.076923077 2:0 3:12 4:1 5:0.42509021 
5 0:0.33333333 1:0.090909091 2:0 3:11 4:0 5:0.39123655 
5 0:0.375 1:0.22222222 2:0 3:26 4:0 5:2.4491329 
5 0:0.75 1:0.14285714 2:1 3:7 4:0 5:0.4519492 
5 0:0.79166667 1:0.16666667 2:0 3:7 4:3 5:0.1583609 
5 0:0.32352941 1:0.066666667 2:1 3:15 4:0 5:0.61338769 
5 0:0.76470588 1:0.14285714 2:1 3:13 4:1 5:0.66750405 
5 0:0.066666667 1:0.41176471 2:0 3:15 4:2 5:0.39424132 
5 0:0.15555556 1:0.35714286 2:0 3:14 4:1 5:0.2448941 
5 0:0.25714286 1:0.08 2:0 3:19 4:6 5:1.0291443 
5 0:0.6 1:0.13793103 2:0 3:28 4:2 5:0.84112005 
5 0:0.85714286 1:0.05 2:0 3:17 4:2 5:0.65134497 
5 0:0.40909091 1:0.066666667 2:0 3:15 4:0 5:0.52344811 
5 0:0.54545455 1:0.1 2:1 3:10 4:0 5:0.50792496 
5 0:0.22222222 1:0.22222222 2:1 3:16 4:0 5:0.92863293 
5 0:0.25 1:0.1 2:2 3:19 4:2 5:1.1281844 
5 0:0.075 1:0.33333333 2:1 3:9 4:0 5:0.30155449 
5 0:0.1 1:0.125 2:3 3:16 4:3 5:1.4762424 
5 0:0.35 1:0.17647059 2:1 3:18 4:4 5:0.67894961 
5 0:0.625 1:0.17391304 2:0 3:21 4:2 5:0.89026025 
5 0:0.16666667 1:0.083333333 2:1 3:11 4:2 5:2.9424027 
0.8554346308927714 0:0.23809524 1:0.1 2:1 3:10 4:0 5:0.53497092 
5 0:0.48 1:0.13333333 2:3 3:15 4:4 5:0.42263479 
5 0:0.84 1:0.11111111 2:1 3:9 4:0 5:0.28182341 
5 0:0.46153846 1:0.05 2:1 3:18 4:3 5:0.73146967 
5 0:0.16129032 1:0.18604651 2:0 3:39 4:2 5:0.66386549 
5 0:0.87096774 1:0.066666667 2:0 3:29 4:2 5:0.8050271 
5 0:0.10344828 1:0.066666667 2:0 3:12 4:3 5:0.89322521 
5 0:0.27586207 1:0.0625 2:0 3:16 4:0 5:0.89029792 
5 0:0.37931034 1:0.058823529 2:0 3:15 4:2 5:0.56030207 
5 0:0.89655172 1:0.18181818 2:0 3:10 4:1 5:0.36164995 
5 0:0.13043478 1:0.11538462 2:0 3:24 4:2 5:1.9655313 
5 0:0.39130435 1:0.052631579 2:1 3:16 4:3 5:2.1945935 
5 0:0.60869565 1:0.071428571 2:1 3:13 4:1 5:1.5742223 
5 0:0.11428571 1:0.076923077 2:0 3:12 4:2 5:1.4915044 
5 0:0.2 1:0.14285714 2:0 3:18 4:2 5:1.7368159 
5 0:0.22857143 1:0.071428571 2:0 3:13 4:1 5:3.0957473 
5 0:0.37142857 1:0.33333333 2:0 3:6 4:0 5:1.3649092 
5 0:0.42857143 1:0.090909091 2:0 3:9 4:2 5:1.6030656 
5 0:0.13636364 1:0.071428571 2:0 3:13 4:1 5:0.96945605 
5 0:0.45454545 1:0.05 2:0 3:19 4:2 5:1.4329583 
5 0:0.19230769 1:0.22222222 2:0 3:17 4:1 5:0.89067173 
5 0:0.34615385 1:0.21428571 2:0 3:13 4:0 5:0.41914103 
5 0:0.61538462 1:0.19047619 2:2 3:20 4:1 5:0.57904072 
5 0:0.33333333 1:0.28125 2:2 3:27 4:9 5:2.5351534 
5 0:0.11111111 1:0.2 2:2 3:10 4:0 5:0.5070525 
5 0:0.14814815 1:0.38461538 2:2 3:13 4:0 5:0.71889666 
5 0:0.62962963 1:0.17647059 2:1 3:15 4:2 5:1.1449914 
5 0:0.66666667 1:0.11111111 2:0 3:10 4:0 5:0.43286606 
5 0:0.21428571 1:0.14705882 2:0 3:42 4:15 5:3.1287514 
5 0:0.10714286 1:0.15384615 2:3 3:12 4:1 5:0.50985584 
5 0:0.096774194 1:0.3 2:1 3:11 4:1 5:0.46979334 
5 0:0.16129032 1:0.11111111 2:0 3:10 4:4 5:1.4086327 
5 0:0.19354839 1:0.16666667 2:0 3:16 4:5 5:0.99070782 
5 0:0.29032258 1:0.25 2:1 3:16 4:0 5:0.56923397 
5 0:0.225 1:0.14285714 2:3 3:13 4:1 5:0.53649636 
5 0:0.25 1:0.047619048 2:2 3:22 4:4 5:0.60145755 
5 0:0.625 1:0.1 2:1 3:10 4:0 5:0.30586398 
5 0:0.65 1:0.33333333 2:0 3:6 4:0 5:0.87084405 
5 0:0.75 1:0.18181818 2:0 3:11 4:1 5:0.51769864 
5 0:0.23333333 1:0.18181818 2:0 3:10 4:1 5:0.39912563 
5 0:0.46666667 1:0.23076923 2:1 3:13 4:0 5:0.49218915 
-5 0:0.49090909 1:0.12 2:0 3:23 4:3 5:0.68571577 
-5 0:0.50909091 1:0.12 2:0 3:25 4:0 5:0.58746759 
-5 0:0.56363636 1:0.090909091 2:0 3:10 4:1 5:0.44604026 
-5 0:0.63636364 1:0.041666667 2:0 3:22 4:2 5:0.74224968 
-5 0:0.87272727 1:0.1875 2:0 3:16 4:1 5:0.38460865 
-5 0:0.89090909 1:0.14285714 2:0 3:7 4:1 5:0.10351494 
-5 0:0.10810811 1:0.35294118 2:1 3:16 4:0 5:1.4100924 
-5 0:0.21621622 1:0.25 2:1 3:12 4:0 5:1.25053 
-5 0:0.2 1:0.42857143 2:1 3:6 4:1 5:0.16222497 
-5 0:0.17391304 1:0.22222222 2:2 3:9 4:0 5:0.83947366 
-5 0:0.73913043 1:0.1875 2:0 3:14 4:2 5:0.56945781 
-5 0:0.24 1:0.074074074 2:0 3:23 4:3 5:1.7987216 
-5 0:0.097560976 1:0.41666667 2:1 3:12 4:0 5:0.55419643 
-5 0:0.58536585 1:0.2 2:1 3:16 4:4 5:0.79571834 
-5 0:1 1:0.035714286 2:3 3:22 4:6 5:2.8897951 
-5 0:0.088888889 1:0.029411765 2:0 3:31 4:3 5:0.9977651 
-5 0:0.77777778 1:0.076923077 2:0 3:15 4:4 5:0.82041353 
-5 0:0.91111111 1:0.083333333 2:0 3:13 4:2 5:0.3008702 
-5 0:0.17391304 1:0.22222222 2:2 3:9 4:0 5:0.83947366 
-5 0:0.73913043 1:0.1875 2:0 3:14 4:2 5:0.56945781 
-5 0:0.12121212 1:0.33333333 2:0 3:12 4:1 5:0.30048842 
-5 0:0.39393939 1:0.25 2:1 3:24 4:1 5:0.45538871 
-5 0:0.75 1:0.11111111 2:0 3:9 4:0 5:0.82928333 
-5 0:0.24137931 1:0.14285714 2:0 3:14 4:0 5:1.2104437 
-5 0:0.79310345 1:0.14285714 2:1 3:13 4:0 5:0.66777513 
-5 0:0.82758621 1:0.0625 2:0 3:16 4:0 5:1.4129477 
-5 0:0.11904762 1:0.30769231 2:0 3:10 4:2 5:2.0439276 
-5 0:0.14285714 1:0.25 2:0 3:4 4:0 5:0.12580803 
-5 0:0.26190476 1:0.125 2:0 3:14 4:3 5:1.5409577 
-5 0:0.28571429 1:0.076923077 2:0 3:13 4:0 5:2.6464128 
-5 0:0.45238095 1:0.0625 2:1 3:16 4:1 5:1.7325564 
-5 0:0.72093023 1:0.125 2:0 3:8 4:0 5:0.89024798 
-5 0:0.8372093 1:0.2 2:0 3:10 4:0 5:0.32208363 
-5 0:0.86046512 1:0.13636364 2:0 3:22 4:7 5:0.5849581 
-5 0:0.88372093 1:0 2:0 3:16 4:4 5:1.7971353 
-5 0:0.14814815 1:0.21052632 2:2 3:19 4:0 5:0.82745146 
-5 0:0.62962963 1:0.045454545 2:0 3:22 4:3 5:0.47442794 
-5 0:0.1025641 1:0.27272727 2:0 3:11 4:2 5:1.332557 
-5 0:0.66666667 1:0.28571429 2:0 3:13 4:1 5:2.4884413 
-5 0:0.5 1:0.083333333 2:0 3:12 4:0 5:1.1219771 
-5 0:0.16666667 1:0.28 2:1 3:25 4:1 5:1.0191637 
-5 0:0.2 1:0.125 2:2 3:22 4:0 5:0.56575162 
-5 0:0.3 1:0.2 2:0 3:10 4:1 5:0.46254809 
-5 0:0.33333333 1:0.066666667 2:0 3:15 4:0 5:0.53215051 
-5 0:0.10638298 1:0.15789474 2:0 3:19 4:10 5:0.58385474 
-5 0:0.12765957 1:0.11764706 2:0 3:15 4:2 5:0.52903954 
-5 0:0.21276596 1:0.28571429 2:0 3:8 4:3 5:0.2197743 
-5 0:0.23404255 1:0.1 2:1 3:9 4:1 5:0.28343328 
-5 0:0.11428571 1:0.2 2:2 3:22 4:0 5:1.6315292 
-5 0:0.71428571 1:0.18181818 2:2 3:10 4:0 5:0.29768421 
-5 0:0.8 1:0.055555556 2:1 3:18 4:1 5:0.8856938 
-5 0:0.093023256 1:0.4 2:0 3:6 4:3 5:0.074166861 
-5 0:0.76744186 1:0.2 2:0 3:4 4:1 5:0.19142228 
-5 0:0.79069767 1:0.16666667 2:0 3:6 4:0 5:0.1509226 
-5 0:0.086956522 1:0.22222222 2:0 3:9 4:0 5:0.53357655 
-5 0:0.15217391 1:0.066666667 2:0 3:29 4:1 5:0.95842947 
-5 0:0.67391304 1:0.1 2:0 3:19 4:1 5:0.73321611 
-5 0:0.38095238 1:0.0625 2:1 3:16 4:0 5:0.62398183 
-5 0:0.52380952 1:0.068965517 2:0 3:27 4:1 5:1.456758 
-5 0:0.11940299 1:0.066666667 2:0 3:15 4:0 5:0.99101178 
-5 0:0.20895522 1:0.071428571 2:1 3:21 4:8 5:1.5056088 
-5 0:0.29850746 1:0.071428571 2:0 3:14 4:0 5:1.0021015 
-5 0:0.47761194 1:0.23076923 2:1 3:13 4:0 5:1.2064168 
-5 0:0.49253731 1:0.14285714 2:0 3:21 4:0 5:0.51624585 
-5 0:0.50746269 1:0.11764706 2:0 3:17 4:0 5:1.5546926 
-5 0:0.62686567 1:0.28571429 2:1 3:7 4:0 5:0.36050668 
-5 0:0.8358209 1:0.055555556 2:2 3:17 4:0 5:0.7407547 
-5 0:0.28947368 1:0.33333333 2:0 3:6 4:1 5:0.051546392 
-5 0:0.13793103 1:0.45454545 2:0 3:11 4:0 5:1.6703229 
-5 0:0.24137931 1:0.17647059 2:0 3:17 4:0 5:0.51468291 
-5 0:0.15151515 1:0.090909091 2:0 3:24 4:7 5:1.5470575 
-5 0:0.125 1:0.17391304 2:2 3:21 4:3 5:1.05352 
-5 0:0.28125 1:0.23076923 2:0 3:26 4:0 5:0.83375063 
-5 0:0.40625 1:0.26666667 2:1 3:15 4:0 5:0.28386818 
-5 0:0.625 1:0.04 2:2 3:21 4:3 5:2.0951382 
-5 0:0.097560976 1:0.27272727 2:0 3:11 4:0 5:0.27171078 
-5 0:0.19512195 1:0.058823529 2:0 3:17 4:2 5:1.6547683 
-5 0:0.2195122 1:0 2:2 3:8 4:4 5:0.34050236 
-5 0:0.34146341 1:0.2 2:0 3:5 4:0 5:0.40812721 
-5 0:0.68292683 1:0.21428571 2:0 3:13 4:1 5:0.46828333 
-5 0:0.11764706 1:0.071428571 2:1 3:14 4:1 5:1.4457395 
-5 0:0.26470588 1:0.25 2:1 3:10 4:5 5:0.70043368 
-5 0:0.11111111 1:0.33333333 2:0 3:9 4:0 5:1.2303097 
-5 0:0.12121212 1:0.13333333 2:1 3:13 4:2 5:0.73083293 
-5 0:0.21153846 1:0.13636364 2:1 3:21 4:2 5:2.508042 
-5 0:0.48076923 1:0.041666667 2:3 3:21 4:3 5:2.3145396 
-5 0:0.5 1:0.071428571 2:1 3:14 4:0 5:0.81224532 
-5 0:0.51923077 1:0.043478261 2:4 3:20 4:5 5:0.9816813 
-5 0:0.15151515 1:0.22727273 2:1 3:21 4:4 5:0.73526383 
-5 0:0.18181818 1:0.05 2:0 3:20 4:0 5:0.85304408 
-5 0:0.51282051 1:0.1875 2:1 3:15 4:1 5:0.230579 
-5 0:0.71794872 1:0.066666667 2:0 3:15 4:0 5:0.4670144 
-5 0:0.74358974 1:0.083333333 2:1 3:12 4:0 5:0.32005528 
-5 0:0.10638298 1:0.25 2:0 3:8 4:0 5:0.31028013 
-5 0:0.12765957 1:0.27272727 2:2 3:22 4:1 5:1.4202562 
-5 0:0.23404255 1:0.17391304 2:0 3:22 4:2 5:0.78005719 
-5 0:0.93617021 1:0.16666667 2:0 3:8 4:4 5:0.23839062 
-5 0:0.62857143 1:0.28571429 2:1 3:14 4:0 5:0.23647972 
-5 0:0.19230769 1:0.14285714 2:0 3:20 4:1 5:1.7112088 
-5 0:0.38461538 1:0.1875 2:0 3:16 4:0 5:0.80436454 
-5 0:0.73076923 1:0.12 2:0 3:25 4:0 5:4.0971976 
-5 0:0.125 1:0.24 2:1 3:25 4:0 5:1.4137383 
-5 0:0.12121212 1:0.28571429 2:0 3:7 4:0 5:0.90402725 
-5 0:0.33333333 1:0.22222222 2:0 3:18 4:0 5:1.5010183 
-5 0:0.14814815 1:0.16666667 2:2 3:6 4:0 5:0.46081022 
-5 0:0.2962963 1:0.125 2:1 3:16 4:1 5:0.46131687 
-5 0:0.125 1:0.1875 2:0 3:16 4:0 5:0.5065546 
-5 0:0.25 1:0.15384615 2:0 3:12 4:2 5:1.2660775 
-5 0:0.53125 1:0.18181818 2:0 3:11 4:0 5:0.31412347 
-5 0:0.875 1:0.076923077 2:0 3:12 4:2 5:0.29784122 
-5 0:0.54545455 1:0.19230769 2:1 3:21 4:7 5:1.5418999 
-5 0:0.72727273 1:0.33333333 2:0 3:3 4:0 5:0.032322416 
-5 0:0.1025641 1:0.16666667 2:1 3:12 4:0 5:0.44231659 
-5 0:0.23076923 1:0.125 2:1 3:14 4:5 5:1.6346034 
-5 0:0.64102564 1:0.2 2:1 3:9 4:1 5:1.2586208 
-5 0:0.43181818 1:0.13333333 2:0 3:14 4:4 5:0.28900634 
-5 0:0.45454545 1:0.33333333 2:0 3:15 4:4 5:0.33713429 
-5 0:0.088888889 1:0.4 2:1 3:9 4:3 5:1.4934592 
-5 0:0.33333333 1:0.041666667 2:2 3:24 4:0 5:1.6152633 
-5 0:0.4 1:0.05 2:0 3:19 4:2 5:0.80015254 
-5 0:0.6 1:0.16666667 2:1 3:15 4:3 5:0.83910923 
-5 0:0.62222222 1:0.066666667 2:0 3:14 4:1 5:1.6737324 
-5 0:0.48148148 1:0.090909091 2:3 3:11 4:0 5:2.2006592 
-5 0:0.51851852 1:0 2:1 3:16 4:2 5:1.2957343 
-5 0:0.13333333 1:0.21052632 2:1 3:20 4:5 5:0.81752325 
-5 0:0.26666667 1:0.12 2:0 3:24 4:2 5:0.90898837 
-5 0:0.4 1:0.15789474 2:3 3:19 4:0 5:0.67605012 
-5 0:0.088888889 1:0.3 2:0 3:10 4:0 5:0.51584894 
-5 0:0.15555556 1:0.071428571 2:0 3:14 4:0 5:1.7074993 
-5 0:0.33333333 1:0.041666667 2:0 3:24 4:2 5:0.93581729 
-5 0:0.35555556 1:0 2:1 3:7 4:0 5:0.63900538 
-5 0:0.6 1:0.10526316 2:1 3:17 4:2 5:0.74368505 
-5 0:0.82352941 1:0.14285714 2:0 3:7 4:0 5:0.17841541 
-5 0:0.15909091 1:0.22222222 2:0 3:9 4:4 5:0.46066928 
-5 0:0.18181818 1:0.14814815 2:0 3:23 4:3 5:1.2309538 
-5 0:0.59090909 1:0.14285714 2:0 3:14 4:0 5:0.73101608 
-5 0:0.63636364 1:0.125 2:0 3:15 4:1 5:0.56987765 
-5 0:0.88636364 1:0.23076923 2:0 3:11 4:2 5:0.36061508 
-5 0:0.125 1:0.4375 2:0 3:15 4:2 5:1.0740878 
-5 0:0.25 1:0.23076923 2:0 3:13 4:0 5:1.0785561 
-5 0:0.4375 1:0.35294118 2:0 3:17 4:0 5:0.69844894 
-5 0:0.46875 1:0.11111111 2:0 3:8 4:1 5:0.12364172 
-5 0:0.84375 1:0.125 2:0 3:22 4:5 5:0.65598276 
-5 0:0.11904762 1:0.037037037 2:0 3:26 4:4 5:1.1619072 
-5 0:0.19047619 1:0.16666667 2:0 3:6 4:0 5:0.35043003 
-5 0:0.33333333 1:0.18181818 2:0 3:20 4:2 5:0.76918753 
-5 0:0.13793103 1:0.18518519 2:0 3:27 4:3 5:2.1631957 
-5 0:0.75862069 1:0.086956522 2:0 3:23 4:0 5:0.93340764 
-5 0:0.79310345 1:0.14285714 2:0 3:19 4:2 5:2.079016 
-5 0:0.77777778 1:0.090909091 2:2 3:20 4:2 5:0.64074126 
-5 0:0.52 1:0.15 2:0 3:19 4:1 5:1.9372691 
-5 0:0.51515152 1:0.071428571 2:0 3:12 4:2 5:1.9643938 
-5 0:0.84848485 1:0.071428571 2:0 3:12 4:1 5:1.9638317 
-5 0:0.28125 1:0.095238095 2:0 3:17 4:5 5:1.1628412 
-5 0:0.90625 1:0.2 2:1 3:10 4:1 5:0.8111465 
-5 0:0.39393939 1:0.086956522 2:0 3:19 4:4 5:0.68910947 
-5 0:0.78787879 1:0.1 2:0 3:21 4:2 5:0.59184824 
-5 0:0.31428571 1:0 2:0 3:17 4:0 5:1.4015328 
-5 0:0.42857143 1:0.11111111 2:1 3:9 4:0 5:1.7996057 
-5 0:0.47826087 1:0.13636364 2:1 3:22 4:0 5:0.94387709 
-5 0:0.86956522 1:0.11111111 2:0 3:11 4:4 5:0.30321518 
-5 0:0.29166667 1:0.3 2:0 3:11 4:0 5:1.2525963 
-5 0:0.33333333 1:0.095238095 2:0 3:20 4:1 5:1.1207331 
-5 0:0.17241379 1:0.3 2:0 3:10 4:0 5:0.6025163 
-5 0:0.20689655 1:0.2 2:0 3:19 4:5 5:2.0321807 
-5 0:0.48275862 1:0.21428571 2:1 3:14 4:1 5:0.32919857 
-5 0:0.51724138 1:0.12 2:3 3:24 4:0 5:0.70416359 
-5 0:0.11111111 1:0.29166667 2:0 3:24 4:0 5:1.1683124 
-5 0:0.44444444 1:0.052631579 2:0 3:17 4:3 5:1.0505518 
-5 0:0.081632653 1:0.2 2:1 3:9 4:4 5:0.34677981 
-5 0:0.30612245 1:0.045454545 2:0 3:21 4:5 5:1.0042556 
-5 0:0.71428571 1:0.090909091 2:0 3:18 4:4 5:0.64330697 
-5 0:0.65384615 1:0.083333333 2:0 3:12 4:0 5:0.50510489 
-5 0:0.87804878 1:0.15789474 2:0 3:20 4:0 5:0.86058632 
-5 0:0.86363636 1:0.21052632 2:0 3:18 4:1 5:2.2305294 
-5 0:0.17241379 1:0.12903226 2:0 3:29 4:2 5:1.6047453 
-5 0:0.20689655 1:0.076923077 2:0 3:13 4:0 5:0.42198495 
-5 0:0.48275862 1:0.14285714 2:1 3:21 4:0 5:0.71743759 
-5 0:0.17142857 1:0.068965517 2:0 3:24 4:4 5:3.4818697 
-5 0:0.68571429 1:0.5 2:0 3:12 4:0 5:0.5614085 
-5 0:0.85714286 1:0.054054054 2:1 3:22 4:15 5:1.192937 
-5 0:0.62962963 1:0.3 2:0 3:11 4:0 5:2.5485491 
-5 0:0.66666667 1:0.25 2:0 3:8 4:0 5:0.88835846 
-5 0:0.25806452 1:0.11111111 2:1 3:8 4:2 5:0.18078003 
-5 0:0.61290323 1:0.2 2:0 3:15 4:2 5:0.11355652 
-5 0:0.19047619 1:0.27272727 2:0 3:22 4:1 5:1.0765188 
-5 0:0.33333333 1:0.086956522 2:1 3:23 4:0 5:2.1819924 
-5 0:0.76190476 1:0.11111111 2:0 3:8 4:1 5:0.30358791 
-5 0:0.78431373 1:0.058823529 2:2 3:17 4:2 5:0.28420254 
-5 0:0.65625 1:0.17647059 2:1 3:17 4:1 5:0.61624148 
-5 0:0.053333333 1:0.14285714 2:1 3:21 4:0 5:1.3049306 
-5 0:0.14666667 1:0.1 2:0 3:20 4:0 5:1.6419 
-5 0:0.32 1:0.1 2:0 3:10 4:0 5:0.50534881 
-5 0:0.33333333 1:0.125 2:0 3:8 4:0 5:0.73326243 
-5 0:0.56 1:0.058823529 2:0 3:16 4:0 5:0.5592112 
-5 0:0.13333333 1:0.13333333 2:3 3:13 4:2 5:0.4081517 
-5 0:0.6 1:0.13043478 2:1 3:23 4:3 5:2.8323481 
-5 0:0.64 1:0.076923077 2:1 3:11 4:2 5:1.4807482 
-5 0:0.11111111 1:0.086956522 2:0 3:23 4:2 5:0.56145225 
-5 0:0.25 1:0.1 2:2 3:28 4:1 5:2.1665517 
-5 0:0.75 1:0.1 2:0 3:11 4:2 5:0.60003175 
-5 0:0.21875 1:0.11764706 2:0 3:17 4:0 5:0.81031179 
-5 0:0.25 1:0.23076923 2:0 3:13 4:0 5:0.4285298 
-5 0:0.71875 1:0.4 2:0 3:5 4:0 5:0.57785379 
-5 0:0.11111111 1:0.29411765 2:0 3:17 4:0 5:0.95007495 
-5 0:0.75 1:0.11111111 2:0 3:16 4:3 5:1.8319641 
-5 0:0.75757576 1:0.1 2:1 3:10 4:0 5:0.21113773 
-5 0:0.11764706 1:0.10714286 2:0 3:25 4:3 5:1.3069999 
-2.324615510859481 0:0.88235294 1:0.04 2:2 3:25 4:1 5:1.7056433 
-5 0:0.14705882 1:0.15384615 2:0 3:13 4:0 5:0.73433423 
-5 0:0.17647059 1:0.31818182 2:0 3:21 4:0 5:2.3801671 
-5 0:0.52941176 1:0.16666667 2:1 3:17 4:0 5:0.46317514 
-5 0:0.19047619 1:0.30769231 2:0 3:11 4:1 5:1.0068186 
-5 0:0.30952381 1:0.125 2:0 3:16 4:0 5:0.70399432 
-5 0:0.33333333 1:0.045454545 2:0 3:19 4:3 5:1.4069036 
-5 0:0.35714286 1:0.125 2:0 3:5 4:3 5:0.22644511 
-5 0:0.10810811 1:0.19047619 2:1 3:21 4:0 5:0.57380964 
-5 0:0.24324324 1:0.23529412 2:0 3:17 4:0 5:0.24693565 
-5 0:0.75675676 1:0.0625 2:1 3:14 4:2 5:0.43464879 
-5 0:0.65853659 1:0.375 2:0 3:8 4:0 5:0.44195752 
-5 0:0.12121212 1:0.13953488 2:0 3:24 4:18 5:1.3973707 
-5 0:0.21212121 1:0 2:0 3:4 4:0 5:0.063228011 
-5 0:0.6969697 1:0.18181818 2:0 3:20 4:2 5:0.99681381 
-5 0:0.93939394 1:0.23529412 2:0 3:17 4:1 5:0.99310498 
-5 0:0.48484848 1:0.27272727 2:0 3:11 4:0 5:0.67439982 
-5 0:0.075471698 1:0.18181818 2:0 3:11 4:0 5:0.32861179 
-5 0:0.20754717 1:0.045454545 2:0 3:22 4:0 5:1.1659016 
-5 0:0.22641509 1:0.05 2:0 3:20 4:0 5:0.83305967 
-5 0:0.24528302 1:0 2:0 3:10 4:0 5:0.34908617 
-5 0:0.30188679 1:0.16666667 2:0 3:11 4:1 5:0.56223354 
-5 0:0.051282051 1:0.25 2:2 3:8 4:0 5:0.10244704 
-5 0:0.21794872 1:0.058823529 2:1 3:15 4:0 5:0.77427912 
-5 0:0.34615385 1:0.086956522 2:2 3:14 4:7 5:0.15616093 
-5 0:0.35897436 1:0.083333333 2:2 3:13 4:0 5:0.26073993 
-5 0:0.27586207 1:0.16666667 2:1 3:10 4:2 5:2.0555296 
-5 0:0.34482759 1:0.125 2:0 3:16 4:0 5:1.7354065 
-5 0:0.37931034 1:0.21428571 2:0 3:12 4:2 5:0.92384787 
-5 0:0.79310345 1:0.38461538 2:0 3:13 4:0 5:0.52367214 
-5 0:0.3 1:0.043478261 2:0 3:22 4:2 5:0.76434008 
-5 0:0.53333333 1:0.071428571 2:0 3:12 4:2 5:0.40615768 
-5 0:0.83333333 1:0.05 2:0 3:20 4:6 5:0.94341366 
-5 0:0.11904762 1:0.2173913 2:1 3:23 4:8 5:0.65009365 
-5 0:0.16666667 1:0.45 2:2 3:21 4:2 5:0.5451407 
-5 0:0.19047619 1:0.076923077 2:0 3:13 4:0 5:0.59143831 
-5 0:0.28571429 1:0.19230769 2:3 3:22 4:6 5:1.7476774 
-5 0:0.45238095 1:0.33333333 2:3 3:12 4:0 5:0.41718515 
-5 0:0.47619048 1:0.11538462 2:4 3:22 4:3 5:0.43491562 
-5 0:0.52380952 1:0.16666667 2:1 3:19 4:1 5:0.30173953 
-5 0:0.54761905 1:0.42857143 2:0 3:15 4:1 5:0.23057071 
-5 0:0.64285714 1:0.125 2:3 3:24 4:3 5:1.5781857 
-5 0:0.055555556 1:0.18181818 2:0 3:11 4:0 5:0.30217518 
-5 0:0.22222222 1:0.26315789 2:0 3:19 4:0 5:0.41606416 
-5 0:0.23611111 1:0.28571429 2:0 3:15 4:2 5:0.17785179 
-5 0:0.59722222 1:0.23076923 2:0 3:12 4:0 5:0.13779449 
-5 0:0.70967742 1:0.25 2:1 3:8 4:0 5:0.22378828 
-5 0:0.19047619 1:0.2 2:0 3:15 4:0 5:1.0364961 
-5 0:0.42857143 1:0.16666667 2:0 3:17 4:2 5:2.2536745 
-5 0:0.80952381 1:0.041666667 2:0 3:24 4:1 5:1.2972962 
-5 0:0.85714286 1:0.066666667 2:0 3:15 4:0 5:0.73140887 
-5 0:0.083333333 1:0.38888889 2:3 3:18 4:0 5:1.7646868 
-5 0:0.31707317 1:0.15 2:0 3:20 4:0 5:1.8947602 
-5 0:0.41463415 1:0.11111111 2:0 3:8 4:1 5:0.94624545 
-5 0:0.086956522 1:0.11538462 2:0 3:24 4:0 5:1.9066148 
-5 0:0.39130435 1:0.11111111 2:0 3:9 4:0 5:0.17773441 
-5 0:0.41304348 1:0.25 2:0 3:4 4:1 5:0.074638888 
-5 0:0.21052632 1:0.10344828 2:0 3:28 4:4 5:2.4905359 
-5 0:0.68421053 1:0.083333333 2:0 3:19 4:5 5:1.8123755 
-5 0:0.098039216 1:0.21052632 2:0 3:19 4:0 5:0.67033807 
-5 0:0.11764706 1:0.090909091 2:0 3:11 4:1 5:0.27627439 
-5 0:0.45098039 1:0.083333333 2:0 3:19 4:4 5:0.79242567 
-5 0:0.52941176 1:0.125 2:0 3:16 4:0 5:1.066606 
-5 0:0.86363636 1:0.038461538 2:1 3:23 4:2 5:1.2168649 
-5 0:0.42307692 1:0.125 2:0 3:15 4:0 5:1.4788282 
-5 0:0.53571429 1:0.26666667 2:2 3:15 4:0 5:0.30872813 
-5 0:0.15384615 1:0.30769231 2:1 3:25 4:1 5:2.6517771 
-5 0:0.26923077 1:0.14285714 2:0 3:6 4:2 5:0.20805397 
-5 0:0.42307692 1:0.055555556 2:0 3:18 4:0 5:0.79066116 
-5 0:0.15555556 1:0.21428571 2:0 3:28 4:0 5:2.9294054 
-5 0:0.24444444 1:0.75 2:0 3:4 4:0 5:1.3548446 
-5 0:0.35555556 1:0.13636364 2:0 3:21 4:0 5:1.4727417 
-5 0:0.083333333 1:0.23076923 2:1 3:13 4:0 5:1.0142422 
-5 0:0.3125 1:0.2 2:1 3:10 4:0 5:0.64056286 
-5 0:0.33333333 1:0.23076923 2:0 3:13 4:0 5:0.40740525 
-5 0:0.52083333 1:0.125 2:1 3:16 4:0 5:0.97364139 
-5 0:0.54166667 1:0 2:0 3:15 4:1 5:0.67072697 
-5 0:0.5625 1:0.15384615 2:1 3:15 4:2 5:0.77990744 
-5 0:0.14634146 1:0.21428571 2:1 3:14 4:0 5:0.31105744 
-5 0:0.090909091 1:0.13043478 2:0 3:22 4:1 5:0.64723924 
-5 0:0.45454545 1:0.33333333 2:0 3:5 4:3 5:0.12739032 
-5 0:0.47727273 1:0.11111111 2:0 3:10 4:3 5:0.22154704 
-5 0:0.75 1:0.28571429 2:1 3:14 4:0 5:0.33020653 
-5 0:0.90909091 1:0.27272727 2:1 3:11 4:0 5:0.18613482 
-5 0:0.64705882 1:0.21428571 2:0 3:14 4:2 5:1.8005018 
-5 0:0.14285714 1:0.035714286 2:1 3:25 4:2 5:1.6817643 
-5 0:0.39285714 1:0.066666667 2:0 3:14 4:1 5:0.33580458 
-5 0:0.78571429 1:0.095238095 2:0 3:21 4:0 5:1.5003278 
-5 0:0.16 1:0.2 2:2 3:9 4:1 5:1.4050101 
-5 0:0.59375 1:0.090909091 2:0 3:11 4:0 5:3.1422209 
-4.343407913304272 0:0.40625 1:0.10714286 2:0 3:26 4:11 5:1.4151381 
-5 0:0.8125 1:0.05 2:0 3:20 4:1 5:2.051886 
-5 0:0.90625 1:0.25 2:0 3:12 4:1 5:0.69802859 
-5 0:0.11428571 1:0.29411765 2:0 3:14 4:1 5:0.25632491 
-5 0:0.6 1:0.2 2:0 3:18 4:3 5:0.82463793 
-5 0:0.71428571 1:0.22222222 2:0 3:18 4:0 5:0.43179619 
-4.112442902757295 0:0.77777778 1:0.27272727 2:0 3:22 4:0 5:3.4098617 
-5 0:0.81481481 1:0.0625 2:0 3:16 4:4 5:1.0019207 
-2.541645339633201 0:0.125 1:0.16666667 2:1 3:29 4:1 5:1.8822619 
-5 0:0.1875 1:0 2:0 3:7 4:0 5:0.3261345 
-5 0:0.3125 1:0.125 2:0 3:8 4:0 5:0.14108941 
-5 0:0.095238095 1:0.15 2:1 3:19 4:2 5:0.42823046 
-5 0:0.28571429 1:0.27272727 2:0 3:10 4:1 5:0.35883554 
-5 0:0.69047619 1:0.043478261 2:0 3:23 4:1 5:0.73360561 
-5 0:0.71428571 1:0.066666667 2:0 3:13 4:3 5:0.57045265 
-5 0:0.73809524 1:0.2 2:0 3:6 4:0 5:0.10856063 
-5 0:1 1:0.090909091 2:0 3:11 4:4 5:0.15830726 
-5 0:0.12820513 1:0.16666667 2:0 3:18 4:0 5:1.5131956 
-5 0:0.15384615 1:0.066666667 2:0 3:14 4:1 5:0.79629793 
-5 0:0.79487179 1:0.13636364 2:0 3:22 4:0 5:1.8963964 
-5 0:0.083333333 1:0.076923077 2:0 3:25 4:0 5:0.8417525 
-5 0:0.35416667 1:0.068965517 2:0 3:27 4:1 5:2.2942994 
-5 0:0.375 1:0 2:0 3:27 4:2 5:0.97579403 
-5 0:0.75 1:0.14285714 2:0 3:21 4:0 5:0.56919044 
-5 0:0.12903226 1:0.26086957 2:3 3:23 4:0 5:0.98307646 
-5 0:0.4516129 1:0.21428571 2:1 3:14 4:0 5:0.37043991 
-5 0:0.081632653 1:0.23809524 2:0 3:20 4:1 5:0.44334297 
-5 0:0.30612245 1:0.055555556 2:0 3:15 4:3 5:1.4671468 
-5 0:0.59183673 1:0.21428571 2:0 3:15 4:1 5:0.84038176 
-5 0:0.67346939 1:0.11111111 2:1 3:17 4:1 5:1.360652 
-5 0:0.28 1:0.037037037 2:0 3:22 4:5 5:0.67443462 
-5 0:0.52 1:0 2:1 3:25 4:0 5:1.5055075 
-5 0:0.56 1:0.15384615 2:0 3:13 4:0 5:0.32634799 
-5 0:0.125 1:0.26315789 2:2 3:18 4:1 5:1.0742381 
-5 0:0.28125 1:0.17647059 2:1 3:18 4:2 5:2.0973189 
-5 0:0.17391304 1:0.16666667 2:0 3:23 4:1 5:2.5927742 
-5 0:0.52173913 1:0.13333333 2:0 3:15 4:0 5:0.5847383 
-5 0:0.71428571 1:0.090909091 2:0 3:16 4:6 5:0.65409234 
-5 0:0.11428571 1:0.11111111 2:0 3:9 4:0 5:0.4478384 
-5 0:0.097560976 1:0.10526316 2:0 3:19 4:4 5:1.0685382 
-5 0:0.31707317 1:0.28571429 2:0 3:8 4:0 5:0.1627469 
-5 0:0.34146341 1:0.11764706 2:2 3:18 4:2 5:0.7610944 
-5 0:0.21052632 1:0.13636364 2:0 3:20 4:0 5:6.4085548 
-5 0:0.42105263 1:0.11538462 2:0 3:24 4:2 5:4.2882418 
-5 0:0.47368421 1:0.16666667 2:0 3:5 4:0 5:0.29795749 
-5 0:0.36363636 1:0.18181818 2:0 3:11 4:0 5:0.2290518 
-5 0:0.40350877 1:0.1 2:0 3:10 4:0 5:1.4197542 
-5 0:0.56140351 1:0 2:0 3:21 4:2 5:1.1522786 
-5 0:0.57894737 1:0.13333333 2:0 3:15 4:0 5:0.64990975 
-5 0:0.12903226 1:0.25 2:0 3:11 4:2 5:0.38335891 
-5 0:0.32258065 1:0.1 2:0 3:8 4:2 5:0.5369695 
-5 0:0.54545455 1:0.33333333 2:0 3:12 4:1 5:0.38368608 
-5 0:0.5 1:0.10714286 2:0 3:25 4:4 5:0.93729492 
-5 0:0.66666667 1:0.22222222 2:0 3:9 4:0 5:0.55797925 
-5 0:0.22727273 1:0.076923077 2:0 3:12 4:4 5:0.43889599 
-5 0:0.14285714 1:0.21052632 2:2 3:19 4:0 5:0.97733137 
-5 0:0.25 1:0.066666667 2:1 3:15 4:0 5:1.7572723 
-5 0:0.42307692 1:0.25 2:0 3:4 4:0 5:0.10844396 
-5 0:0.92307692 1:0.21428571 2:1 3:13 4:0 5:0.25332942 
-5 0:0.076923077 1:0.23076923 2:0 3:27 4:3 5:1.930199 
-5 0:0.19230769 1:0.055555556 2:0 3:18 4:0 5:2.7065808 
-5 0:0.21153846 1:0.27272727 2:0 3:11 4:0 5:1.5423154 
-5 0:0.12903226 1:0.30769231 2:2 3:12 4:1 5:0.27274445 
-5 0:0.29032258 1:0 2:0 3:25 4:3 5:0.70200835 
-5 0:0.21875 1:0.045454545 2:0 3:19 4:3 5:2.4912345 
-5 0:0.25 1:0.076923077 2:0 3:13 4:1 5:0.48378288 
-5 0:0.18181818 1:0.045454545 2:1 3:23 4:0 5:5.1419433 
-5 0:0.17777778 1:0.15384615 2:0 3:12 4:1 5:0.40692622 
-5 0:0.2 1:0.055555556 2:0 3:17 4:1 5:0.69844288 
-5 0:0.93333333 1:0.125 2:0 3:15 4:2 5:0.72093177 
-5 0:0.14814815 1:0.28571429 2:2 3:19 4:4 5:0.77157408 
-5 0:0.77777778 1:0.1 2:0 3:11 4:2 5:0.74650645 
-5 0:0.81481481 1:0.125 2:2 3:15 4:2 5:0.81537113 
-5 0:0.37142857 1:0.17647059 2:1 3:17 4:0 5:0.93896137 
-5 0:0.48571429 1:0.21052632 2:0 3:17 4:3 5:1.021873 
-5 0:0.68571429 1:0 2:1 3:12 4:0 5:0.57794304 
-5 0:0.12903226 1:0.16666667 2:0 3:10 4:0 5:0.30943972 
-5 0:0.25806452 1:0.38461538 2:0 3:13 4:0 5:0.91513642 
-5 0:0.15625 1:0.2 2:0 3:10 4:0 5:2.1392643 
-5 0:0.1875 1:0.22222222 2:0 3:18 4:0 5:2.3422362 
-5 0:0.59375 1:0.125 2:0 3:25 4:0 5:1.4253322 
-5 0:0.6875 1:0.090909091 2:0 3:22 4:0 5:0.69792454 
-5 0:0.48717949 1:0.071428571 2:1 3:14 4:2 5:0.71792729 
-5 0:0.51282051 1:0.090909091 2:0 3:12 4:3 5:0.25869011 
-5 0:0.53846154 1:0.25 2:0 3:4 4:0 5:0.23239918 
-5 0:0.56410256 1:0.1875 2:0 3:16 4:0 5:0.67398885 
-5 0:0.58974359 1:0.0625 2:0 3:13 4:3 5:0.69856595 
-5 0:0.61538462 1:0.04 2:0 3:25 4:1 5:0.92836804 
-5 0:0.92307692 1:0.076923077 2:0 3:19 4:6 5:1.3098447 
-5 0:0.42857143 1:0.095238095 2:2 3:22 4:2 5:0.64412249 
-5 0:0.53571429 1:0.08 2:2 3:23 4:1 5:0.95538356 
-5 0:0.6 1:0.23076923 2:0 3:12 4:1 5:0.28633772 
-5 0:0.2244898 1:0.22222222 2:0 3:20 4:4 5:0.36113116 
-5 0:0.4 1:0 2:0 3:13 4:6 5:0.21630081 
-5 0:0.098039216 1:0.25 2:1 3:5 4:0 5:0.51799912 
-5 0:0.11764706 1:0.14285714 2:0 3:6 4:2 5:0.53559024 
-5 0:0.21568627 1:0.071428571 2:1 3:13 4:2 5:0.6670393 
-5 0:0.23529412 1:0.30769231 2:2 3:12 4:1 5:2.214572 
-5 0:0.54285714 1:0.21428571 2:1 3:14 4:1 5:0.35785415 
-5 0:0.085106383 1:0.30769231 2:1 3:12 4:0 5:0.16859828 
-5 0:0.21276596 1:0.2 2:1 3:13 4:1 5:0.55741354 
-5 0:0.23404255 1:0.055555556 2:1 3:18 4:0 5:1.0094178 
-5 0:0.5106383 1:0.25 2:0 3:7 4:1 5:1.159578 
-5 0:0.53191489 1:0.13043478 2:3 3:20 4:3 5:0.5615201 
-5 0:0.57446809 1:0.071428571 2:2 3:12 4:2 5:1.5455699 
-5 0:0.59574468 1:0.16666667 2:1 3:15 4:3 5:1.1723261 
-5 0:0.61702128 1:0.11764706 2:2 3:14 4:3 5:0.29372717 
-5 0:0.56666667 1:0.375 2:0 3:16 4:0 5:0.66640063 
-5 0:0.5483871 1:0.22727273 2:0 3:18 4:5 5:2.8784797 
-5 0:0.58064516 1:0.083333333 2:0 3:6 4:6 5:0.26666074 
-5 0:0.83870968 1:0.23076923 2:0 3:11 4:3 5:0.44756799 
-5 0:0.076923077 1:0.23076923 2:1 3:13 4:0 5:0.81058487 
-5 0:0.30769231 1:0.076923077 2:0 3:13 4:0 5:0.33391179 
-5 0:0.32692308 1:0 2:0 3:25 4:3 5:1.4432285 
-5 0:0.44230769 1:0.125 2:3 3:14 4:2 5:0.64085252 
-5 0:0.17391304 1:0.12 2:1 3:25 4:2 5:2.2743136 
-5 0:0.47826087 1:0.2173913 2:0 3:21 4:1 5:2.0817204 
-5 0:0.52173913 1:0.375 2:0 3:8 4:1 5:0.7606028 
-5 0:0.15384615 1:0.2 2:1 3:20 4:1 5:0.46463773 
-5 0:0.083333333 1:0.0625 2:0 3:15 4:1 5:0.60076909 
-5 0:0.1875 1:0.25 2:0 3:8 4:0 5:0.2191448 
-5 0:0.076923077 1:0.3 2:2 3:10 4:0 5:0.28339777 
-5 0:0.82692308 1:0.25 2:0 3:9 4:0 5:0.80786446 
-5 0:0.1025641 1:0.16666667 2:0 3:24 4:2 5:0.57942091 
-5 0:0.28205128 1:0.083333333 2:1 3:12 4:0 5:0.33713536 
-5 0:0.13793103 1:0.28571429 2:0 3:17 4:5 5:1.0951738 
-5 0:0.1025641 1:0.1 2:0 3:20 4:1 5:0.71238398 
-5 0:0.38461538 1:0.20833333 2:0 3:22 4:3 5:1.2284784 
-5 0:0.41025641 1:0.043478261 2:0 3:17 4:9 5:0.56639702 
-5 0:0.28846154 1:0.086956522 2:1 3:20 4:4 5:0.95426719 
-5 0:0.30769231 1:0.27272727 2:0 3:11 4:0 5:0.44940006 
-5 0:0.86538462 1:0.15384615 2:1 3:13 4:0 5:0.51823942 
-5 0:0.22222222 1:0.22222222 2:2 3:9 4:0 5:0.54493898 
-5 0:0.76666667 1:0.16666667 2:0 3:21 4:2 5:0.40474472 
-5 0:0.86666667 1:0.2 2:0 3:5 4:0 5:0.17660287 
-5 0:0.9 1:0.27272727 2:0 3:11 4:1 5:0.29608631 
-5 0:0.17241379 1:0.125 2:1 3:16 4:1 5:0.59353877 
-5 0:0.24137931 1:0.083333333 2:0 3:12 4:0 5:0.27544222 
-5 0:0.27586207 1:0.23809524 2:1 3:21 4:0 5:0.37567784 
-5 0:0.8974359 1:0.26666667 2:0 3:15 4:0 5:0.44116988 
-5 0:0.38235294 1:0.076923077 2:0 3:24 4:1 5:0.8058462 
-5 0:0.325 1:0.090909091 2:0 3:10 4:1 5:1.8466359 
-5 0:0.12820513 1:0.23076923 2:0 3:13 4:0 5:2.00412 
-5 0:0.15384615 1:0.23076923 2:0 3:14 4:0 5:0.7952721 
-4.672032589752741 0:0.20512821 1:0.076923077 2:65 3:18 4:8 5:2.8880868 
-5 0:0.19230769 1:0.058823529 2:1 3:17 4:0 5:1.6405171 
-5 0:0.23076923 1:0.1 2:1 3:20 4:0 5:1.0285382 
-5 0:0.34615385 1:0.31578947 2:0 3:19 4:0 5:3.8383474 
-5 0:0.65384615 1:0.12 2:0 3:17 4:9 5:0.61476804 
-5 0:0.12903226 1:0.125 2:1 3:22 4:0 5:0.8341659 
-5 0:0.80645161 1:0.058823529 2:1 3:17 4:0 5:0.98546423 
-5 0:0.32352941 1:0.19047619 2:1 3:20 4:1 5:0.62968302 
-5 0:0.35294118 1:0.1 2:0 3:19 4:1 5:0.70114777 
-5 0:0.76470588 1:0.125 2:0 3:9 4:2 5:0.24716667 
-5 0:0.51851852 1:0.05 2:0 3:19 4:1 5:1.3544546 
-5 0:0.10526316 1:0.1 2:0 3:9 4:0 5:0.29952099 
-5 0:0.36842105 1:0.125 2:0 3:16 4:1 5:0.70232812 
-5 0:0.61111111 1:0.038461538 2:0 3:20 4:6 5:1.4165033 
-5 0:0.2 1:0.18181818 2:0 3:11 4:0 5:1.9936117 
-5 0:0.75 1:0.25 2:0 3:4 4:0 5:0.14072398 
-5 0:0.078431373 1:0.4 2:0 3:10 4:0 5:0.32835324 
-5 0:0.39215686 1:0.090909091 2:0 3:11 4:1 5:0.47054529 
-5 0:0.39130435 1:0.0625 2:0 3:17 4:0 5:0.47250717 
-5 0:0.52173913 1:0.090909091 2:0 3:13 4:7 5:0.21565843 
-5 0:0.095238095 1:0.47058824 2:0 3:18 4:2 5:0.43586486 
-5 0:0.19047619 1:0.25 2:0 3:4 4:0 5:0.20375963 
-5 0:0.21428571 1:0.125 2:0 3:8 4:0 5:1.8384131 
-5 0:0.82352941 1:0.083333333 2:2 3:13 4:3 5:1.9127698 
-5 0:0.15151515 1:0.3125 2:0 3:15 4:3 5:0.28612269 
-5 0:0.18181818 1:0.27272727 2:0 3:10 4:1 5:0.14683418 
-5 0:0.078431373 1:0.34782609 2:1 3:21 4:0 5:0.42028687 
-5 0:0.66666667 1:0.066666667 2:0 3:11 4:2 5:0.263536 
-5 0:0.84313725 1:0.125 2:0 3:8 4:0 5:0.097045221 
-5 0:0.78571429 1:0.086956522 2:1 3:21 4:2 5:1.3986605 
-5 0:0.82142857 1:0.11111111 2:1 3:17 4:1 5:1.083351 
-5 0:0.18181818 1:0.058823529 2:1 3:16 4:0 5:0.37670622 
-5 0:0.36363636 1:0.1 2:0 3:10 4:0 5:0.43392369 
-5 0:0.071428571 1:0.22222222 2:0 3:16 4:0 5:0.89188348 
-5 0:0.26785714 1:0.14285714 2:0 3:7 4:0 5:1.9262164 
-5 0:0.086956522 1:0.25925926 2:2 3:26 4:0 5:0.85354243 
-5 0:0.19565217 1:0.068965517 2:1 3:25 4:4 5:1.5024854 
-5 0:0.2173913 1:0.2 2:0 3:10 4:0 5:1.2928167 
-5 0:0.73913043 1:0.16666667 2:0 3:12 4:0 5:0.84655989 
-5 0:0.12903226 1:0.33333333 2:0 3:9 4:0 5:1.2762448 
-5 0:0.25806452 1:0.125 2:0 3:8 4:0 5:0.22829224 
-5 0:0.58064516 1:0.20833333 2:1 3:23 4:0 5:0.57740111 
-5 0:0.088888889 1:0.23076923 2:0 3:22 4:4 5:0.57170158 
-5 0:0.57777778 1:0.2173913 2:0 3:20 4:1 5:0.61424438 
-5 0:0.075471698 1:0.4 2:0 3:5 4:0 5:0.14430829 
-5 0:0.1509434 1:0.21428571 2:1 3:13 4:1 5:0.28770983 
-5 0:0.32075472 1:0.10526316 2:1 3:19 4:0 5:0.55840752 
-5 0:0.33962264 1:0.14285714 2:2 3:13 4:1 5:0.17102137 
-5 0:0.45283019 1:0 2:0 3:6 4:1 5:0.12569441 
-5 0:0.77358491 1:0.083333333 2:0 3:21 4:3 5:0.4600983 
-5 0:0.2 1:0.38095238 2:0 3:20 4:1 5:0.78270944 
-5 0:0.24 1:0.21052632 2:0 3:19 4:0 5:0.34393967 
-5 0:0.5 1:0.21052632 2:0 3:19 4:0 5:1.9313731 
-5 0:0.54166667 1:0.125 2:0 3:8 4:0 5:0.37811854 
-5 0:0.35 1:0.083333333 2:1 3:23 4:1 5:1.0206017 
-5 0:0.25806452 1:0.05 2:0 3:20 4:1 5:0.77913818 
-5 0:0.36842105 1:0.083333333 2:1 3:23 4:0 5:0.47875358 
-5 0:0.84210526 1:0.1 2:2 3:20 4:0 5:0.65511653 
-5 0:0.51282051 1:0.14285714 2:0 3:12 4:2 5:0.55053865 
-5 0:0.53846154 1:0.13333333 2:0 3:14 4:0 5:0.31945777 
-5 0:0.7826087 1:0.2 2:0 3:23 4:0 5:1.1311405 
-5 0:0.48717949 1:0.11764706 2:0 3:17 4:3 5:0.9495125 
-5 0:0.66666667 1:0.14285714 2:0 3:14 4:0 5:0.79515514 
-5 0:0.69230769 1:0.28571429 2:0 3:7 4:0 5:0.96373008 
-5 0:0.081632653 1:0.27777778 2:3 3:18 4:0 5:0.36926087 
-5 0:0.1 1:0.21428571 2:0 3:14 4:0 5:0.47703942 
-5 0:0.081632653 1:0.2 2:0 3:15 4:0 5:0.35967446 
-5 0:0.3877551 1:0.14285714 2:0 3:10 4:6 5:0.21833883 
-5 0:0.57142857 1:0.15 2:0 3:18 4:2 5:0.73827911 
-5 0:0.59183673 1:0.058823529 2:0 3:16 4:1 5:0.652208 
-5 0:0.24137931 1:0.074074074 2:0 3:26 4:2 5:1.3157177 
-5 0:0.72413793 1:0.11764706 2:0 3:17 4:0 5:0.55746134 
-5 0:0.4 1:0.08 2:0 3:25 4:2 5:2.1934749 
-5 0:0.53846154 1:0.05 2:0 3:16 4:2 5:1.6916784 
-5 0:0.57692308 1:0.033333333 2:0 3:27 4:2 5:1.0402183 
-5 0:0.2 1:0.21428571 2:0 3:15 4:2 5:0.48413939 
-5 0:0.35 1:0.15384615 2:1 3:13 4:0 5:0.98603282 
-5 0:0.14814815 1:0.10526316 2:0 3:15 4:4 5:2.237755 
-5 0:1 1:0.125 2:0 3:7 4:1 5:0.24660529 
-5 0:0.11111111 1:0.076923077 2:0 3:13 4:0 5:0.70124886 
-5 0:0.13333333 1:0.23529412 2:0 3:17 4:0 5:0.41331274 
-5 0:0.076923077 1:0.2173913 2:0 3:23 4:0 5:0.62657513 
-5 0:0.17307692 1:0.13793103 2:0 3:27 4:1 5:1.4030419 
-5 0:0.19230769 1:0.14285714 2:0 3:14 4:0 5:0.94109142 
-5 0:0.48076923 1:0.066666667 2:0 3:14 4:0 5:0.26352374 
-5 0:0.21052632 1:0.38461538 2:0 3:13 4:0 5:1.4410644 
-5 0:0.17647059 1:0.13636364 2:2 3:22 4:4 5:0.57601637 
-5 0:0.38235294 1:0.28571429 2:0 3:7 4:0 5:1.753482 
-5 0:0.44117647 1:0.125 2:0 3:8 4:0 5:0.35527316 
-5 0:0.61764706 1:0.25 2:0 3:8 4:0 5:0.98443127 
-5 0:0.37837838 1:0.13333333 2:0 3:14 4:1 5:0.56971546 
-5 0:0.97297297 1:0.0625 2:0 3:16 4:1 5:0.88938851 
-5 0:0.21212121 1:0.17391304 2:1 3:23 4:4 5:0.76158522 
-5 0:0.78787879 1:0.125 2:0 3:15 4:1 5:0.80713247 
-5 0:0.42105263 1:0.1 2:0 3:19 4:0 5:2.5374733 
-5 0:0.12903226 1:0.23076923 2:0 3:13 4:0 5:0.34273776 
-5 0:0.58064516 1:0.041666667 2:0 3:21 4:2 5:2.0533792 
-5 0:0.095238095 1:0.23076923 2:0 3:13 4:0 5:0.29163628 
-5 0:0.38095238 1:0.5 2:0 3:10 4:0 5:1.0029419 
-5 0:0.4047619 1:0.23076923 2:0 3:12 4:2 5:1.150727 
-5 0:0.52380952 1:0.10526316 2:0 3:17 4:2 5:0.33556441 
-5 0:0.16 1:0.30769231 2:0 3:13 4:0 5:0.30989657 
-5 0:0.28 1:0.22222222 2:0 3:27 4:0 5:3.2206611 
-5 0:0.6 1:0.4 2:2 3:19 4:0 5:1.6425059 
-5 0:1 1:0.3125 2:1 3:15 4:5 5:2.4678091 
-5 0:0.19047619 1:0.43478261 2:6 3:21 4:0 5:2.2323067 
-5 0:0.35483871 1:0.055555556 2:0 3:18 4:8 5:0.61302341 
-5 0:0.38709677 1:0.066666667 2:0 3:14 4:1 5:0.47396306 
-5 0:0.13043478 1:0.076923077 2:0 3:13 4:0 5:0.48303527 
-5 0:0.19565217 1:0.16666667 2:0 3:18 4:0 5:0.6348455 
-5 0:0.2826087 1:0.10526316 2:0 3:18 4:1 5:2.0352276 
-5 0:0.41304348 1:0.33333333 2:0 3:9 4:3 5:1.3705112 
-5 0:0.67391304 1:0.18181818 2:0 3:12 4:4 5:1.8291366 
-5 0:0.69565217 1:0.2 2:0 3:10 4:0 5:0.24059238 
-5 0:0.10810811 1:0.15789474 2:1 3:17 4:10 5:1.3364581 
-5 0:0.18918919 1:0.25 2:0 3:9 4:3 5:1.8753356 
-5 0:0.54054054 1:0.1 2:1 3:10 4:1 5:0.89424905 
-5 0:0.11428571 1:0.16666667 2:0 3:12 4:0 5:0.32392594 
-5 0:0.1 1:0.41666667 2:0 3:12 4:0 5:0.34728551 
-5 0:0.95 1:0.15384615 2:0 3:13 4:0 5:0.33060838 
-5 0:0.975 1:0.055555556 2:0 3:17 4:1 5:0.3826503 
-5 0:0.13333333 1:0.33333333 2:0 3:15 4:0 5:1.1437242 
-5 0:0.25 1:0.4 2:1 3:5 4:0 5:0.12821568 
-5 0:0.10526316 1:0.23076923 2:0 3:12 4:1 5:1.2753517 
-5 0:0.34210526 1:0.125 2:0 3:16 4:0 5:1.9417935 
-5 0:0.36842105 1:0.090909091 2:0 3:11 4:0 5:1.5736825 
-5 0:0.68421053 1:0.04 2:1 3:25 4:0 5:2.3452712 
-5 0:0.12903226 1:0.25 2:0 3:10 4:2 5:0.3040928 
-5 0:0.29032258 1:0.25 2:0 3:4 4:0 5:0.049298768 
-5 0:0.74193548 1:0.25 2:0 3:8 4:0 5:1.2921758 
-5 0:0.10204082 1:0.28571429 2:2 3:22 4:2 5:0.64003952 
-5 0:0.12244898 1:0.10526316 2:1 3:20 4:5 5:3.4687809 
-5 0:0.18367347 1:0.2 2:1 3:9 4:2 5:0.77204541 
-5 0:0.53061224 1:0.076923077 2:2 3:25 4:1 5:1.0108337 
-5 0:0.28 1:0.16666667 2:0 3:22 4:7 5:2.6565612 
-5 0:0.48 1:0.2 2:0 3:19 4:7 5:0.73074413 
-5 0:0.52 1:0.125 2:0 3:15 4:1 5:1.9216454 
-5 0:0.54166667 1:0.26666667 2:0 3:15 4:0 5:0.48348457 
-5 0:0.13793103 1:0.27272727 2:3 3:21 4:4 5:1.8986379 
-5 0:0.55172414 1:0.066666667 2:1 3:17 4:8 5:0.98081611 
-5 0:0.26315789 1:0.1 2:0 3:21 4:8 5:3.3262471 
-5 0:0.075471698 1:0.14285714 2:0 3:21 4:4 5:0.59557681 
-5 0:0.22641509 1:0.090909091 2:0 3:11 4:0 5:0.22199586 
-5 0:0.10294118 1:0.045454545 2:0 3:20 4:2 5:0.53866572 
-5 0:0.16176471 1:0.23529412 2:0 3:18 4:1 5:0.40461423 
-5 0:0.22058824 1:0.125 2:0 3:24 4:4 5:0.93774904 
-5 0:0.75 1:0.14285714 2:0 3:18 4:2 5:0.68992345 
-5 0:0.11764706 1:0.2 2:2 3:15 4:0 5:0.47519961 
-5 0:0.5 1:0.083333333 2:0 3:21 4:3 5:1.7972452 
-5 0:0.093023256 1:0.18181818 2:1 3:11 4:0 5:0.77732798 
-5 0:0.1627907 1:0.15384615 2:0 3:25 4:0 5:1.3222247 
-5 0:0.093023256 1:0.18181818 2:0 3:12 4:2 5:0.62863257 
-5 0:0.9375 1:0.15 2:0 3:21 4:1 5:0.51724405 
-5 0:0.10810811 1:0.2 2:0 3:10 4:0 5:0.34239253 
-5 0:0.40540541 1:0.066666667 2:2 3:14 4:1 5:2.145512 
-5 0:0.7027027 1:0.071428571 2:2 3:14 4:1 5:2.754294 
-5 0:0.18181818 1:0.0625 2:1 3:15 4:1 5:0.54747812 
-5 0:0.20454545 1:0.04 2:2 3:20 4:4 5:1.4149629 
-5 0:0.77272727 1:0.05 2:1 3:21 4:1 5:0.45249943 
-5 0:0.13888889 1:0.4 2:0 3:13 4:0 5:0.20801188 
-5 0:0.16666667 1:0.076923077 2:0 3:20 4:6 5:1.2633614 
-5 0:0.41666667 1:0.33333333 2:0 3:15 4:0 5:0.57666788 
-5 0:0.5 1:0.15 2:0 3:19 4:1 5:1.7971659 
-5 0:0.51612903 1:0.18181818 2:0 3:12 4:1 5:0.24448149 
-5 0:0.14814815 1:0.28571429 2:0 3:14 4:0 5:1.20862 
-5 0:0.25925926 1:0.11111111 2:1 3:9 4:0 5:0.1482507 
-5 0:0.26415094 1:0.15384615 2:0 3:13 4:0 5:0.45781659 
-5 0:0.40425532 1:0.074074074 2:0 3:25 4:2 5:3.621656 
-5 0:0.42553191 1:0.11111111 2:0 3:21 4:6 5:3.6507202 
-5 0:0.44680851 1:0 2:0 3:13 4:0 5:2.0468194 
-5 0:0.59574468 1:0.095238095 2:0 3:22 4:0 5:4.2000189 
-5 0:0.61702128 1:0.083333333 2:0 3:15 4:0 5:2.3923761 
-5 0:0.87234043 1:0 2:0 3:10 4:3 5:2.4476069 
-5 0:0.89361702 1:0.23076923 2:0 3:14 4:3 5:3.3342594 
-5 0:0.090909091 1:0.090909091 2:1 3:22 4:0 5:1.2862907 
-5 0:0.93181818 1:0.25 2:0 3:9 4:2 5:0.16417072 
-5 0:0.2 1:0.25 2:3 3:23 4:7 5:4.2465633 
-5 0:0.13333333 1:0.23529412 2:2 3:17 4:0 5:0.5661099 
-5 0:0.26666667 1:0 2:0 3:18 4:3 5:3.9342991 
-5 0:0.66666667 1:0.16666667 2:0 3:7 4:3 5:0.95276651 
-5 0:0.37837838 1:0 2:1 3:15 4:2 5:1.8847413 
-5 0:0.29411765 1:0.11111111 2:0 3:25 4:1 5:2.4514313 
-5 0:0.125 1:0.18181818 2:3 3:11 4:0 5:1.3259851 
-5 0:0.40625 1:0.14814815 2:0 3:26 4:4 5:1.7782726 
-5 0:0.4375 1:0.095238095 2:1 3:14 4:7 5:0.4690774 
-5 0:0.46875 1:0 2:1 3:18 4:1 5:0.7599426 
-5 0:0.53125 1:0.095238095 2:2 3:20 4:1 5:0.61733404 
-5 0:0.070175439 1:0.090909091 2:0 3:21 4:1 5:0.45338066 
-5 0:0.1754386 1:0.2 2:0 3:5 4:0 5:0.14376731 
-5 0:0.29824561 1:0.4 2:0 3:20 4:0 5:0.91139302 
-5 0:0.71929825 1:0.16 2:0 3:23 4:0 5:1.7012806 
-5 0:0.06557377 1:0.28571429 2:1 3:7 4:0 5:0.27511275 
-5 0:0.18032787 1:0.125 2:1 3:8 4:1 5:0.20995261 
-5 0:0.70491803 1:0.25 2:0 3:8 4:0 5:0.5555789 
-5 0:0.72131148 1:0.1875 2:1 3:17 4:0 5:0.85047843 
-5 0:0.91803279 1:0.41666667 2:0 3:11 4:0 5:0.23646892 
-5 0:0.93442623 1:0.125 2:0 3:15 4:1 5:0.31286266 
-5 0:0.12195122 1:0.33333333 2:0 3:12 4:0 5:0.7413851 
-5 0:0.14634146 1:0.1 2:0 3:11 4:5 5:2.1213542 
-5 0:0.29268293 1:0.14285714 2:0 3:21 4:4 5:1.491449 
-5 0:0.30769231 1:0.066666667 2:1 3:15 4:0 5:0.47781861 
-5 0:0.14285714 1:0.16666667 2:0 3:6 4:0 5:0.15780976 
-5 0:0.34693878 1:0.14285714 2:0 3:22 4:5 5:1.9972171 
-5 0:0.36734694 1:0.16666667 2:0 3:19 4:4 5:0.92450963 
-5 0:0.3877551 1:0.10526316 2:0 3:19 4:0 5:0.86179044 
-5 0:0.86666667 1:0.44444444 2:0 3:8 4:0 5:7.7855365 
-5 0:0.4 1:0.23809524 2:1 3:20 4:6 5:1.0648576 
-5 0:0.37037037 1:0.16666667 2:1 3:11 4:1 5:0.33046891 
-5 0:0.74074074 1:0.22727273 2:1 3:18 4:5 5:0.82851638 
-5 0:1 1:0.23809524 2:1 3:20 4:1 5:0.86701298 
-5 0:0.1025641 1:0.25 2:2 3:24 4:2 5:1.1084961 
-5 0:0.085106383 1:0.095238095 2:0 3:21 4:0 5:1.7161353 
-5 0:0.31914894 1:0.066666667 2:0 3:14 4:1 5:0.35482509 
-5 0:0.36170213 1:0.041666667 2:2 3:22 4:2 5:0.61529224 
-5 0:0.11111111 1:0.33333333 2:0 3:21 4:0 5:0.42523139 
-5 0:0.38888889 1:0.33333333 2:0 3:18 4:1 5:0.59120027 
-5 0:0.21052632 1:0.14285714 2:0 3:21 4:0 5:3.3149538 
-5 0:0.12903226 1:0.22222222 2:2 3:9 4:0 5:0.75526997 
-5 0:0.22580645 1:0.22222222 2:0 3:10 4:0 5:0.15440901 
-5 0:0.48387097 1:0.27777778 2:1 3:15 4:3 5:0.86002877 
-5 0:0.51612903 1:0.16666667 2:2 3:18 4:0 5:0.48391774 
-5 0:0.80645161 1:0.22222222 2:1 3:9 4:0 5:1.048015 
-5 0:0.83870968 1:0.5 2:0 3:7 4:1 5:1.3837539 
-5 0:0.16666667 1:0.0625 2:1 3:15 4:1 5:0.51955437 
-5 0:0.2 1:0.14285714 2:1 3:14 4:0 5:1.0075086 
-5 0:0.66666667 1:0.066666667 2:0 3:14 4:1 5:0.39362552 
-5 0:0.085106383 1:0.41666667 2:0 3:10 4:1 5:0.13492038 
-5 0:0.31914894 1:0.25 2:1 3:8 4:0 5:0.25410123 
-5 0:0.44680851 1:0.30769231 2:1 3:13 4:0 5:0.85781208 
-5 0:0.46808511 1:0.2 2:0 3:18 4:1 5:0.83289812 
-5 0:0.15384615 1:0.21052632 2:2 3:19 4:4 5:0.73995671 
-5 0:0.26923077 1:0.16 2:1 3:24 4:8 5:0.67327209 
-5 0:0.61538462 1:0.15384615 2:2 3:14 4:1 5:2.01109 
-5 0:0.44444444 1:0.24 2:1 3:23 4:3 5:0.89028224 
-5 0:0.15789474 1:0.2 2:0 3:20 4:0 5:2.875946 
-5 0:0.39473684 1:0.125 2:0 3:15 4:1 5:0.76968356 
-5 0:0.39285714 1:0.22222222 2:1 3:9 4:0 5:1.4338251 
-5 0:0.42857143 1:0.14285714 2:1 3:7 4:0 5:1.1273406 
-5 0:0.78571429 1:0.14285714 2:1 3:14 4:0 5:1.5727831 
-5 0:0.82142857 1:0.095238095 2:1 3:19 4:2 5:1.4669283 
-5 0:0.12903226 1:0.16666667 2:1 3:12 4:0 5:0.44931568 
-5 0:0.22580645 1:0.13333333 2:0 3:27 4:7 5:0.89602278 
-5 0:0.4516129 1:0.16666667 2:0 3:17 4:2 5:0.81302178 
-5 0:0.48387097 1:0.15384615 2:0 3:14 4:6 5:0.29255056 
-5 0:0.51612903 1:0.076923077 2:0 3:11 4:2 5:0.23530415 
-5 0:0.15151515 1:0.30769231 2:1 3:13 4:1 5:0.61273371 
-5 0:0.18181818 1:0.090909091 2:0 3:22 4:0 5:0.63873069 
-5 0:0.25 1:0.33333333 2:0 3:18 4:1 5:0.8403989 
-5 0:0.5625 1:0.14285714 2:0 3:14 4:0 5:1.2872308 
-5 0:0.17857143 1:0.15789474 2:2 3:19 4:0 5:0.88181026 
-5 0:0.21428571 1:0.11764706 2:3 3:15 4:6 5:2.1363795 
-5 0:0.39285714 1:0.125 2:1 3:8 4:0 5:0.47832385 
-5 0:0.055555556 1:0.25 2:0 3:8 4:0 5:0.27494928 
-5 0:0.625 1:0.3 2:0 3:16 4:4 5:0.24136493 
-5 0:0.63888889 1:0.095238095 2:0 3:19 4:3 5:0.68228429 
-5 0:0.16 1:0.27777778 2:0 3:15 4:2 5:1.0436816 
-5 0:0.88 1:0.066666667 2:4 3:16 4:1 5:2.0097791 
-5 0:0.75 1:0.16666667 2:0 3:18 4:1 5:1.7179053 
-5 0:0.92857143 1:0.14285714 2:0 3:7 4:0 5:0.63957274 
-5 0:0.22 1:0.13636364 2:0 3:21 4:0 5:0.56546525 
-5 0:0.26 1:0.25 2:0 3:12 4:0 5:0.21882812 
-5 0:0.088888889 1:0.31578947 2:1 3:16 4:2 5:1.3882232 
-5 0:0.73333333 1:0.1 2:0 3:10 4:0 5:0.45573852 
-5 0:0.11904762 1:0.14285714 2:1 3:6 4:0 5:0.23697449 
-5 0:0.14285714 1:0.25 2:1 3:12 4:0 5:0.38507615 
-5 0:0.42857143 1:0.13636364 2:0 3:22 4:6 5:0.44722406 
-5 0:0.14814815 1:0.33333333 2:1 3:16 4:2 5:0.94716228 
-5 0:0.40740741 1:0.25 2:0 3:18 4:2 5:0.61496895 
-5 0:0.62962963 1:0.12 2:0 3:24 4:5 5:1.1656952 
-5 0:0.13333333 1:0.058823529 2:0 3:18 4:2 5:0.48077475 
-5 0:0.4 1:0.071428571 2:0 3:10 4:4 5:1.7124941 
-5 0:0.064516129 1:0.25 2:0 3:20 4:0 5:1.1857251 
-5 0:0.17741935 1:0.11764706 2:0 3:16 4:2 5:1.2663486 
-5 0:0.19354839 1:0.14285714 2:0 3:7 4:0 5:1.4172237 
-5 0:0.30645161 1:0.11764706 2:0 3:18 4:1 5:1.0718174 
-5 0:0.33333333 1:0.125 2:1 3:8 4:1 5:0.34370571 
-5 0:0.076923077 1:0.16666667 2:1 3:12 4:0 5:0.40215307 
-5 0:0.67307692 1:0.5 2:0 3:8 4:0 5:0.37290554 
-5 0:0.69230769 1:0.47058824 2:0 3:17 4:0 5:1.0904263 
-5 0:0.92307692 1:0.2 2:0 3:10 4:0 5:0.34741822 
-5 0:0.51851852 1:0.071428571 2:1 3:13 4:1 5:4.5471406 
-5 0:0.10526316 1:0.11764706 2:1 3:15 4:1 5:1.0475793 
-5 0:0.36842105 1:0.125 2:0 3:8 4:0 5:0.3371776 
-5 0:0.47368421 1:0.11111111 2:1 3:10 4:0 5:0.74946219 
-5 0:0.1 1:0.4 2:1 3:8 4:2 5:0.73430848 
-5 0:0.575 1:0.05 2:2 3:19 4:1 5:1.7151806 
-5 0:0.6 1:0.035714286 2:5 3:25 4:3 5:0.86704444 
-5 0:0.375 1:0.17241379 2:2 3:25 4:6 5:0.71479468 
-5 0:0.5 1:0.066666667 2:2 3:15 4:1 5:0.36623702 
-5 0:0.11764706 1:0.38888889 2:0 3:17 4:0 5:1.0709614 
-5 0:0.17647059 1:0.125 2:1 3:17 4:0 5:1.8368881 
-5 0:0.55882353 1:0.1 2:0 3:19 4:1 5:0.45628753 
-5 0:0.67647059 1:0.28571429 2:0 3:7 4:0 5:0.15155417 
-5 0:0.2037037 1:0.071428571 2:0 3:13 4:1 5:0.44732925 
-5 0:0.37037037 1:0.16666667 2:0 3:24 4:1 5:1.4956937 
-5 0:0.46296296 1:0.125 2:0 3:8 4:0 5:1.8462466 
-5 0:1 1:0.043478261 2:0 3:21 4:1 5:2.1289561 
-5 0:0.12903226 1:0.18181818 2:1 3:23 4:3 5:0.98724649 
-5 0:0.19354839 1:0.090909091 2:1 3:11 4:1 5:0.97485067 
-5 0:0.80645161 1:0.21052632 2:1 3:20 4:0 5:0.66032957 
-5 0:0.14285714 1:0.14285714 2:2 3:7 4:0 5:0.52076323 
-5 0:0.17142857 1:0.17391304 2:3 3:19 4:7 5:0.60924281 
-5 0:0.37142857 1:0.25 2:0 3:11 4:1 5:0.58221972 
-5 0:0.71428571 1:0.052631579 2:3 3:17 4:0 5:1.4086579 
-5 0:0.74285714 1:0.22222222 2:1 3:9 4:0 5:0.28039489 
-5 0:0.14814815 1:0.33333333 2:0 3:18 4:0 5:1.7018275 
-5 0:0.44444444 1:0.083333333 2:0 3:12 4:0 5:0.42840642 
-5 0:0.48148148 1:0.04 2:1 3:23 4:3 5:0.91947262 
-5 0:0.59259259 1:0.33333333 2:0 3:16 4:1 5:2.8019764 
-5 0:0.10416667 1:0.31818182 2:0 3:22 4:3 5:0.56258636 
-5 0:0.125 1:0.2 2:0 3:5 4:0 5:0.21671322 
-5 0:0.64583333 1:0.18181818 2:0 3:22 4:1 5:0.94003992 
-5 0:0.66666667 1:0.071428571 2:0 3:15 4:1 5:0.68093813 
-5 0:0.8125 1:0.16666667 2:1 3:17 4:5 5:0.73481688 
-5 0:0.83333333 1:0.29411765 2:0 3:17 4:0 5:1.1932689 
-5 0:0.41666667 1:0.1 2:0 3:9 4:1 5:1.4919063 
-5 0:0.45833333 1:0.125 2:0 3:16 4:0 5:0.82967918 
-5 0:0.83333333 1:0.23809524 2:1 3:20 4:1 5:3.963693 
-5 0:0.875 1:0.16666667 2:0 3:6 4:0 5:0.83515002 
-5 0:0.35294118 1:0.071428571 2:2 3:14 4:1 5:0.56356942 
-5 0:0.79411765 1:0.25 2:2 3:19 4:1 5:2.1292316 
-5 0:0.088888889 1:0.29411765 2:0 3:17 4:0 5:1.209297 
-5 0:0.28571429 1:0.2 2:0 3:14 4:5 5:0.56479706 
-5 0:0.62857143 1:0 2:1 3:17 4:5 5:0.59233079 
-5 0:0.125 1:0.19047619 2:0 3:20 4:1 5:0.7188407 
-5 0:0.45454545 1:0.17647059 2:1 3:13 4:2 5:0.51767151 
-5 0:0.11111111 1:0.5 2:1 3:19 4:0 5:1.1089778 
-5 0:0.27777778 1:0.2 2:0 3:18 4:1 5:1.337281 
-5 0:0.30555556 1:0.27777778 2:0 3:16 4:4 5:0.61537363 
-5 0:0.125 1:0.16666667 2:1 3:13 4:5 5:0.81031105 
-5 0:0.15 1:0.14285714 2:0 3:7 4:0 5:0.40278604 
-5 0:0.375 1:0.125 2:0 3:8 4:0 5:2.3699491 
-5 0:0.65 1:0.21052632 2:0 3:15 4:3 5:0.36728738 
-5 0:0.095238095 1:0.1875 2:2 3:17 4:1 5:1.3035902 
-5 0:0.19047619 1:0.125 2:1 3:8 4:0 5:1.2661979 
-5 0:0.21428571 1:0.125 2:0 3:5 4:3 5:0.034770283 
-5 0:0.26190476 1:0.052631579 2:1 3:18 4:1 5:1.5118437 
-5 0:0.48076923 1:0 2:0 3:9 4:0 5:0.23643524 
-5 0:0.19354839 1:0.14814815 2:0 3:25 4:3 5:0.42687489 
-5 0:0.90322581 1:0.2 2:0 3:5 4:0 5:0.5223479 
-5 0:0.13793103 1:0.0625 2:0 3:16 4:0 5:0.97560345 
-5 0:0.4137931 1:0.052631579 2:0 3:17 4:2 5:1.5022455 
-5 0:0.17391304 1:0.2 2:0 3:8 4:2 5:1.4365419 
-5 0:0.65217391 1:0.047619048 2:0 3:21 4:0 5:2.590659 
-5 0:0.14285714 1:0.15384615 2:0 3:13 4:0 5:1.603803 
-5 0:0.17142857 1:0.086956522 2:0 3:23 4:0 5:2.2855558 
-5 0:0.25714286 1:0.066666667 2:0 3:15 4:0 5:6.1296365 
-5 0:0.28571429 1:0.14285714 2:0 3:14 4:0 5:1.5812782 
-5 0:0.45714286 1:0.090909091 2:0 3:11 4:1 5:0.84767405 
-5 0:0.48571429 1:0.33333333 2:0 3:21 4:0 5:2.7196399 
-5 0:0.51428571 1:0.16666667 2:0 3:9 4:3 5:0.23692725 
-5 0:0.18181818 1:0.14285714 2:0 3:7 4:1 5:1.2757698 
-5 0:0.5 1:0.15384615 2:2 3:13 4:0 5:3.279762 
-5 0:0.23076923 1:0.066666667 2:0 3:16 4:0 5:1.4000449 
-5 0:0.65384615 1:0.21052632 2:2 3:17 4:2 5:2.1466614 
-5 0:0.36666667 1:0.3 2:0 3:10 4:0 5:0.85702714 
-5 0:0.22222222 1:0.090909091 2:0 3:22 4:1 5:1.7615023 
-5 0:0.7037037 1:0.18181818 2:1 3:11 4:5 5:0.34747142 
-5 0:0.25 1:0.090909091 2:1 3:11 4:0 5:1.3035058 
-5 0:0.28571429 1:0.16666667 2:2 3:20 4:4 5:3.8544277 
-5 0:0.14285714 1:0.35714286 2:2 3:14 4:0 5:0.41680477 
-5 0:0.12903226 1:0.14285714 2:0 3:18 4:3 5:1.07227 
-5 0:0.22580645 1:0.23809524 2:2 3:22 4:4 5:2.0113855 
-5 0:0.25806452 1:0.125 2:2 3:24 4:2 5:1.7415042 
-5 0:0.32258065 1:0.375 2:0 3:15 4:3 5:2.7624762 
-5 0:0.15 1:0.30769231 2:4 3:13 4:0 5:1.2363432 
-5 0:0.175 1:0.086956522 2:2 3:22 4:1 5:0.72987524 
-5 0:0.2 1:0.18181818 2:1 3:11 4:0 5:0.66961938 
-5 0:0.275 1:0.13333333 2:1 3:14 4:1 5:0.37459318 
-5 0:0.3 1:0.058823529 2:5 3:17 4:0 5:1.4632434 
-5 0:0.7 1:0.083333333 2:2 3:23 4:0 5:1.2762046 
-5 0:0.775 1:0.16666667 2:0 3:8 4:2 5:0.9170347 
-5 0:0.26666667 1:0.22222222 2:0 3:10 4:6 5:0.32684153 
