svm_type c_svc
kernel_type linear
nr_class 2
total_sv 888
rho -1.15367
label 1 -1
nr_sv 446 442
SV
10 0:3 1:0.1 2:0 
10 0:1 1:0.11111111 2:2 
10 0:2 1:0.095238095 2:4 
10 0:3 1:0.2 2:0 
10 0:1 1:0.36363636 2:2 
10 0:2 1:0.125 2:0 
10 0:16 1:0.23076923 2:0 
7.592708210934418 0:1 1:0.33333333 2:0 
10 0:2 1:0.071428571 2:0 
10 0:3 1:0.071428571 2:0 
10 0:15 1:0.16 2:0 
10 0:2 1:0.095238095 2:0 
10 0:1 1:0 2:2 
10 0:2 1:0.090909091 2:1 
10 0:11 1:0.05 2:1 
10 0:12 1:0.15 2:2 
10 0:17 1:0.11111111 2:1 
10 0:18 1:0.1 2:0 
10 0:2 1:0.13333333 2:1 
10 0:7 1:0.13636364 2:0 
10 0:8 1:0.125 2:2 
10 0:21 1:0.055555556 2:1 
10 0:1 1:0.22222222 2:2 
10 0:2 1:0.10714286 2:1 
10 0:1 1:0.26666667 2:3 
10 0:2 1:0.10714286 2:3 
10 0:1 1:0.3 2:0 
10 0:2 1:0.1 2:0 
10 0:3 1:0.125 2:0 
10 0:1 1:0.36363636 2:0 
10 0:2 1:0.1 2:0 
10 0:3 1:0.0625 2:1 
10 0:4 1:0.090909091 2:0 
2.134824160900706 0:1 1:0.071428571 2:0 
10 0:2 1:0.041666667 2:0 
10 0:2 1:0.25 2:0 
10 0:3 1:0.083333333 2:0 
10 0:2 1:0.1 2:1 
10 0:3 1:0.25 2:0 
10 0:2 1:0.125 2:0 
10 0:1 1:0.13043478 2:0 
10 0:2 1:0.058823529 2:0 
10 0:1 1:0.23809524 2:1 
10 0:2 1:0.071428571 2:0 
10 0:2 1:0.083333333 2:0 
10 0:3 1:0.055555556 2:0 
10 0:8 1:0.16666667 2:0 
10 0:2 1:0.4 2:1 
10 0:3 1:0.095238095 2:0 
10 0:1 1:0.17647059 2:3 
10 0:2 1:0.11111111 2:1 
10 0:13 1:0.15384615 2:2 
10 0:22 1:0.11111111 2:0 
10 0:23 1:0.27272727 2:0 
10 0:2 1:0.14285714 2:0 
10 0:1 1:0 2:1 
10 0:2 1:0.125 2:2 
10 0:3 1:0.05 2:2 
10 0:2 1:0.08 2:1 
10 0:8 1:0.11428571 2:0 
10 0:13 1:0.04 2:1 
10 0:24 1:0.10638298 2:0 
10 0:29 1:0.125 2:0 
10 0:33 1:0.11538462 2:0 
10 0:2 1:0.066666667 2:0 
10 0:3 1:0.11764706 2:0 
10 0:1 1:0.36363636 2:4 
10 0:2 1:0.041666667 2:0 
10 0:3 1:0.18181818 2:0 
10 0:1 1:0.14285714 2:3 
10 0:2 1:0.11111111 2:0 
10 0:3 1:0.14285714 2:3 
10 0:9 1:0.1 2:2 
10 0:39 1:0.090909091 2:1 
10 0:2 1:0.125 2:0 
10 0:2 1:0 2:0 
10 0:3 1:0.10526316 2:1 
10 0:21 1:0.032258065 2:0 
0.1187939292121327 0:1 1:0.14285714 2:1 
10 0:2 1:0.14285714 2:1 
10 0:3 1:0.125 2:1 
10 0:1 1:0 2:4 
10 0:2 1:0.125 2:3 
10 0:1 1:0.055555556 2:3 
10 0:2 1:0.052631579 2:0 
10 0:3 1:0.15384615 2:0 
10 0:6 1:0.043478261 2:0 
10 0:2 1:0.076923077 2:0 
10 0:3 1:0.083333333 2:0 
0.0002155875611894221 0:1 1:0.13333333 2:0 
10 0:2 1:0.076923077 2:1 
10 0:3 1:0.11111111 2:0 
10 0:2 1:0.125 2:0 
10 0:3 1:0.083333333 2:0 
10 0:1 1:0.071428571 2:1 
10 0:2 1:0.08 2:0 
10 0:12 1:0.04 2:1 
10 0:1 1:0.26666667 2:0 
10 0:2 1:0.13333333 2:0 
10 0:3 1:0.14285714 2:0 
10 0:1 1:0.18181818 2:2 
10 0:2 1:0.071428571 2:1 
10 0:3 1:0.14285714 2:2 
10 0:7 1:0.16666667 2:2 
10 0:20 1:0.060606061 2:0 
10 0:2 1:0.17391304 2:1 
10 0:1 1:0.11764706 2:2 
10 0:2 1:0.071428571 2:1 
10 0:5 1:0.14285714 2:0 
10 0:1 1:0.22222222 2:2 
10 0:2 1:0.076923077 2:2 
10 0:2 1:0.25 2:0 
10 0:3 1:0.13333333 2:1 
10 0:15 1:0 2:0 
10 0:2 1:0.090909091 2:1 
10 0:3 1:0.25 2:1 
10 0:1 1:0.066666667 2:4 
10 0:2 1:0.33333333 2:0 
10 0:3 1:0.15384615 2:0 
10 0:1 1:0.052631579 2:3 
10 0:2 1:0.11111111 2:1 
10 0:3 1:0.066666667 2:2 
10 0:1 1:0.14285714 2:0 
10 0:2 1:0.0625 2:1 
10 0:3 1:0.13333333 2:1 
10 0:1 1:0.05 2:0 
10 0:2 1:0.095238095 2:2 
7.097478644553832 0:1 1:0.125 2:1 
10 0:2 1:0.052631579 2:0 
10 0:1 1:0.090909091 2:1 
10 0:2 1:0.19047619 2:2 
10 0:1 1:0.1 2:0 
10 0:2 1:0.083333333 2:0 
10 0:3 1:0.11764706 2:2 
10 0:1 1:0.18181818 2:3 
10 0:2 1:0.15384615 2:0 
10 0:3 1:0.14285714 2:0 
10 0:21 1:0.11428571 2:1 
10 0:22 1:0.11111111 2:0 
10 0:2 1:0.21052632 2:2 
10 0:3 1:0.090909091 2:0 
10 0:14 1:0 2:1 
10 0:15 1:0.375 2:0 
10 0:25 1:0.11764706 2:0 
10 0:31 1:0.28 2:0 
10 0:2 1:0.066666667 2:0 
10 0:3 1:0.05 2:0 
10 0:6 1:0.041666667 2:0 
10 0:2 1:0.11111111 2:1 
10 0:3 1:0.14285714 2:1 
10 0:9 1:0.11764706 2:0 
10 0:14 1:0.076923077 2:0 
10 0:17 1:0.11764706 2:0 
10 0:1 1:0.16666667 2:2 
10 0:2 1:0.13333333 2:0 
10 0:3 1:0.066666667 2:1 
10 0:1 1:0.25925926 2:1 
10 0:2 1:0.15384615 2:1 
10 0:11 1:0.18181818 2:0 
10 0:2 1:0.25 2:0 
10 0:3 1:0.1 2:5 
10 0:1 1:0.30769231 2:3 
10 0:2 1:0.35294118 2:1 
10 0:3 1:0.090909091 2:0 
10 0:1 1:0.071428571 2:1 
10 0:2 1:0.071428571 2:0 
10 0:3 1:0.058823529 2:1 
10 0:7 1:0.15384615 2:1 
10 0:2 1:0.055555556 2:0 
10 0:3 1:0.5 2:0 
10 0:1 1:0.2173913 2:1 
10 0:2 1:0.26666667 2:0 
10 0:9 1:0.15384615 2:0 
10 0:10 1:0.2173913 2:0 
10 0:1 1:0.24 2:1 
10 0:2 1:0.22222222 2:0 
0.2723255080901584 0:1 1:0.071428571 2:0 
10 0:2 1:0.043478261 2:0 
10 0:3 1:0.25 2:0 
10 0:1 1:0.23529412 2:1 
10 0:2 1:0.125 2:1 
10 0:3 1:0.0625 2:1 
10 0:1 1:0.22727273 2:0 
10 0:2 1:0.1 2:0 
10 0:1 1:0.22222222 2:3 
10 0:2 1:0.052631579 2:3 
10 0:3 1:0.071428571 2:0 
10 0:2 1:0.375 2:0 
10 0:8 1:0.095238095 2:2 
10 0:9 1:0.12 2:0 
10 0:2 1:0.1875 2:0 
10 0:8 1:0.095238095 2:1 
10 0:1 1:0.3 2:2 
10 0:2 1:0.083333333 2:4 
10 0:1 1:0.2 2:4 
10 0:2 1:0.2 2:1 
10 0:3 1:0.090909091 2:0 
10 0:4 1:0.22222222 2:0 
10 0:2 1:0.083333333 2:2 
10 0:3 1:0.14285714 2:0 
10 0:1 1:0.18181818 2:2 
10 0:2 1:0.23076923 2:0 
10 0:3 1:0.1875 2:0 
10 0:17 1:0.11111111 2:1 
10 0:2 1:0.083333333 2:1 
10 0:6 1:0.1 2:2 
10 0:15 1:0.076923077 2:1 
10 0:2 1:0.090909091 2:0 
10 0:3 1:0.23076923 2:1 
10 0:1 1:0.4 2:0 
10 0:2 1:0.13793103 2:0 
10 0:3 1:0.090909091 2:4 
10 0:1 1:0.047619048 2:1 
10 0:2 1:0.0625 2:0 
10 0:9 1:0.125 2:0 
10 0:10 1:0.0625 2:2 
10 0:19 1:0.08 2:1 
10 0:2 1:0.076923077 2:1 
10 0:3 1:0.16666667 2:0 
10 0:1 1:0.23529412 2:0 
10 0:2 1:0.066666667 2:0 
10 0:3 1:0.25 2:0 
10 0:1 1:0.14285714 2:0 
10 0:2 1:0.055555556 2:1 
10 0:3 1:0.05 2:1 
10 0:1 1:0.13333333 2:0 
10 0:2 1:0.11764706 2:1 
10 0:2 1:0.055555556 2:0 
10 0:3 1:0.1 2:0 
10 0:15 1:0.078947368 2:0 
10 0:2 1:0.066666667 2:0 
10 0:3 1:0.11111111 2:1 
10 0:1 1:0 2:0 
10 0:2 1:0.15789474 2:0 
10 0:3 1:0.11111111 2:1 
10 0:2 1:0.055555556 2:0 
10 0:3 1:0.22222222 2:0 
10 0:20 1:0.090909091 2:0 
10 0:2 1:0.13333333 2:2 
10 0:3 1:0.125 2:3 
10 0:2 1:0.125 2:1 
10 0:3 1:0.047619048 2:2 
10 0:1 1:0.18181818 2:3 
10 0:2 1:0.05 2:0 
10 0:10 1:0.086956522 2:3 
10 0:15 1:0.17391304 2:3 
10 0:18 1:0.14285714 2:0 
10 0:30 1:0.095238095 2:3 
10 0:2 1:0.04 2:0 
10 0:3 1:0.090909091 2:0 
10 0:1 1:0.1 2:0 
10 0:2 1:0.3 2:3 
10 0:3 1:0.33333333 2:0 
10 0:4 1:0 2:1 
9.99978441243881 0:1 1:0.30434783 2:1 
10 0:2 1:0.16666667 2:0 
10 0:1 1:0 2:0 
10 0:2 1:0.15384615 2:0 
10 0:3 1:0.1 2:0 
10 0:4 1:0.2 2:0 
10 0:1 1:0.11111111 2:2 
10 0:2 1:0.27272727 2:1 
10 0:3 1:0.16666667 2:2 
10 0:25 1:0.071428571 2:0 
10 0:2 1:0.058823529 2:2 
10 0:3 1:0.15 2:1 
10 0:1 1:0.18181818 2:2 
10 0:2 1:0.17391304 2:3 
10 0:3 1:0.375 2:2 
10 0:24 1:0 2:0 
10 0:2 1:0.14285714 2:1 
6.133560142106088 0:1 1:0.071428571 2:1 
10 0:2 1:0.14285714 2:1 
10 0:3 1:0.11111111 2:1 
10 0:4 1:0.13333333 2:1 
10 0:1 1:0.15384615 2:1 
10 0:2 1:0.083333333 2:1 
10 0:3 1:0.071428571 2:2 
10 0:4 1:0.11111111 2:2 
10 0:32 1:0.1 2:2 
10 0:2 1:0.066666667 2:0 
10 0:2 1:0.17647059 2:0 
10 0:3 1:0.22222222 2:0 
10 0:15 1:0.16216216 2:0 
10 0:23 1:0.125 2:0 
10 0:1 1:0.058823529 2:2 
10 0:2 1:0.04 2:0 
10 0:11 1:0.11111111 2:0 
10 0:19 1:0.14814815 2:1 
10 0:1 1:0.16666667 2:2 
10 0:2 1:0.045454545 2:3 
10 0:7 1:0.043478261 2:1 
10 0:14 1:0.11111111 2:1 
10 0:15 1:0.0625 2:0 
10 0:1 1:0.2 2:2 
10 0:2 1:0.1 2:3 
10 0:3 1:0.14285714 2:3 
10 0:4 1:0.076923077 2:0 
10 0:22 1:0.066666667 2:2 
10 0:2 1:0.125 2:0 
10 0:3 1:0.33333333 2:0 
10 0:2 1:0.15384615 2:0 
10 0:3 1:0.11111111 2:1 
9.739053710887724 0:1 1:0.125 2:1 
10 0:2 1:0.11111111 2:0 
10 0:3 1:0.1 2:1 
10 0:20 1:0.060606061 2:0 
10 0:2 1:0.052631579 2:0 
10 0:3 1:0.1 2:0 
10 0:1 1:0.33333333 2:2 
10 0:2 1:0.076923077 2:0 
10 0:3 1:0.14285714 2:0 
10 0:1 1:0.17647059 2:4 
10 0:2 1:0.047619048 2:1 
10 0:1 1:0 2:1 
10 0:2 1:0.066666667 2:0 
10 0:3 1:0.052631579 2:1 
10 0:1 1:0.42857143 2:0 
10 0:2 1:0.071428571 2:0 
10 0:3 1:0.17647059 2:0 
10 0:2 1:0.16666667 2:0 
10 0:3 1:0.23076923 2:1 
10 0:15 1:0.15384615 2:1 
10 0:18 1:0.058823529 2:0 
10 0:1 1:0.090909091 2:1 
10 0:2 1:0.071428571 2:0 
10 0:3 1:0.055555556 2:5 
10 0:1 1:0.15384615 2:1 
10 0:2 1:0.055555556 2:0 
10 0:3 1:0.14285714 2:1 
10 0:26 1:0.064516129 2:4 
10 0:1 1:0.15384615 2:2 
10 0:2 1:0.066666667 2:1 
10 0:3 1:0.0625 2:0 
10 0:12 1:0 2:1 
10 0:2 1:0.090909091 2:0 
10 0:3 1:0.0625 2:0 
10 0:26 1:0.071428571 2:0 
10 0:2 1:0.055555556 2:1 
10 0:3 1:0.058823529 2:2 
10 0:1 1:0.1 2:0 
10 0:2 1:0.2 2:1 
10 0:3 1:0.125 2:0 
10 0:1 1:0.071428571 2:0 
10 0:2 1:0.083333333 2:0 
10 0:3 1:0.16666667 2:2 
10 0:4 1:0.066666667 2:1 
10 0:1 1:0 2:1 
10 0:2 1:0.047619048 2:1 
10 0:3 1:0.05 2:1 
10 0:1 1:0.375 2:3 
10 0:2 1:0.14285714 2:0 
10 0:3 1:0.125 2:2 
10 0:4 1:0.33333333 2:0 
10 0:9 1:0.1875 2:0 
10 0:16 1:0 2:0 
10 0:1 1:0.15384615 2:2 
10 0:2 1:0.18181818 2:1 
10 0:3 1:0.33333333 2:0 
10 0:18 1:0.14285714 2:1 
10 0:19 1:0.11764706 2:1 
10 0:1 1:0.1 2:0 
10 0:2 1:0.11111111 2:0 
10 0:2 1:0.055555556 2:2 
10 0:3 1:0.11538462 2:4 
10 0:2 1:0.038461538 2:0 
10 0:3 1:0.055555556 2:1 
10 0:2 1:0.1 2:0 
10 0:3 1:0.125 2:0 
10 0:1 1:0 2:0 
10 0:2 1:0.076923077 2:0 
10 0:3 1:0.11764706 2:1 
10 0:12 1:0 2:0 
10 0:1 1:0.2 2:9 
10 0:2 1:0.125 2:0 
10 0:2 1:0.24137931 2:1 
10 0:3 1:0.2 2:0 
10 0:32 1:0.3 2:0 
10 0:2 1:0.1 2:2 
10 0:3 1:0.083333333 2:2 
10 0:18 1:0.04 2:1 
10 0:24 1:0 2:0 
10 0:1 1:0.05 2:0 
10 0:2 1:0.16666667 2:0 
10 0:7 1:0.032258065 2:0 
10 0:13 1:0 2:0 
10 0:20 1:0.041666667 2:0 
10 0:28 1:0.047619048 2:1 
10 0:1 1:0 2:1 
10 0:2 1:0.0625 2:0 
10 0:4 1:0.14285714 2:0 
10 0:1 1:0.10344828 2:2 
10 0:2 1:0.44444444 2:0 
10 0:2 1:0.11764706 2:1 
10 0:3 1:0.2 2:1 
10 0:1 1:0.13333333 2:2 
10 0:2 1:0.2 2:1 
10 0:3 1:0.11111111 2:0 
10 0:4 1:0.15384615 2:1 
10 0:20 1:0.16666667 2:1 
10 0:1 1:0.090909091 2:1 
10 0:2 1:0.066666667 2:0 
10 0:3 1:0.058823529 2:2 
10 0:1 1:0.14285714 2:3 
10 0:2 1:0.066666667 2:5 
10 0:12 1:0.11111111 2:3 
10 0:22 1:0.052631579 2:1 
10 0:1 1:0 2:1 
10 0:2 1:0.076923077 2:1 
10 0:3 1:0.0625 2:1 
10 0:2 1:0.066666667 2:1 
10 0:1 1:0.090909091 2:1 
10 0:2 1:0.16666667 2:1 
10 0:3 1:0.055555556 2:0 
10 0:18 1:0 2:0 
10 0:1 1:0.25 2:2 
10 0:2 1:0.22222222 2:0 
10 0:3 1:0.11111111 2:0 
10 0:4 1:0.076923077 2:0 
10 0:2 1:0.14285714 2:0 
10 0:3 1:0.16666667 2:0 
10 0:4 1:0 2:3 
10 0:23 1:0 2:0 
10 0:2 1:0.14285714 2:0 
10 0:3 1:0.21052632 2:0 
10 0:2 1:0.13333333 2:0 
10 0:3 1:0.125 2:0 
10 0:9 1:0 2:0 
10 0:22 1:0.10526316 2:0 
10 0:1 1:0.16666667 2:3 
10 0:2 1:0.090909091 2:0 
10 0:22 1:0.071428571 2:1 
10 0:1 1:0.1 2:1 
10 0:2 1:0.0625 2:1 
10 0:3 1:0.076923077 2:0 
10 0:2 1:0.14285714 2:4 
10 0:5 1:0.11764706 2:0 
10 0:14 1:0 2:0 
10 0:16 1:0.0625 2:0 
10 0:28 1:0.05 2:1 
10 0:1 1:0.29411765 2:0 
10 0:2 1:0.15384615 2:0 
10 0:3 1:0.16666667 2:1 
10 0:1 1:0 2:4 
10 0:2 1:0.15384615 2:2 
10 0:3 1:0.090909091 2:1 
-10 0:4 1:0.15384615 2:0 
-10 0:5 1:0.090909091 2:0 
-10 0:6 1:0.125 2:1 
-10 0:3 1:0.24390244 2:3 
-10 0:4 1:0.043478261 2:0 
-10 0:4 1:0.18181818 2:0 
-10 0:5 1:0.08 2:1 
-10 0:6 1:0.055555556 2:0 
-10 0:3 1:0.052631579 2:0 
-10 0:4 1:0.083333333 2:0 
-10 0:3 1:0 2:1 
-10 0:4 1:0.095238095 2:1 
-10 0:13 1:0.21052632 2:0 
-3.088744306685124 0:14 1:0.11111111 2:1 
-10 0:3 1:0.22222222 2:0 
-10 0:4 1:0.13636364 2:0 
-10 0:9 1:0.13636364 2:1 
-10 0:10 1:0.125 2:0 
-10 0:3 1:0.16666667 2:0 
-10 0:4 1:0.045454545 2:0 
-10 0:3 1:0 2:2 
-10 0:4 1:0.083333333 2:0 
-10 0:4 1:0.2 2:0 
-10 0:5 1:0.13636364 2:0 
-10 0:6 1:0.064516129 2:0 
-10 0:5 1:0.23076923 2:0 
-10 0:6 1:0.037037037 2:4 
-10 0:7 1:0 2:4 
-10 0:8 1:0.11111111 2:0 
-10 0:3 1:0.18181818 2:0 
-10 0:4 1:0.15151515 2:0 
-10 0:4 1:0.2 2:1 
-10 0:5 1:0.38095238 2:0 
-10 0:6 1:0.19047619 2:0 
-10 0:4 1:0.2 2:0 
-10 0:5 1:0.088235294 2:0 
-10 0:6 1:0.071428571 2:1 
-10 0:3 1:0.043478261 2:3 
-10 0:4 1:0.066666667 2:2 
-10 0:3 1:0.083333333 2:0 
-10 0:4 1:0.22641509 2:0 
-10 0:3 1:0.055555556 2:0 
-10 0:4 1:0.090909091 2:1 
-10 0:4 1:0.066666667 2:0 
-10 0:5 1:0.05 2:0 
-10 0:6 1:0.0625 2:0 
-10 0:9 1:0.083333333 2:0 
-10 0:4 1:0.05 2:0 
-10 0:5 1:0.076923077 2:0 
-10 0:6 1:0.23529412 2:0 
-10 0:3 1:0.17647059 2:0 
-10 0:4 1:0.043478261 2:2 
-10 0:14 1:0.125 2:0 
-10 0:3 1:0.0625 2:0 
-10 0:4 1:0.071428571 2:0 
-10 0:4 1:0.1 2:2 
-10 0:5 1:0.055555556 2:0 
-10 0:6 1:0.083333333 2:0 
-10 0:3 1:0.23076923 2:0 
-10 0:4 1:0.0625 2:0 
-10 0:9 1:0.068965517 2:0 
-10 0:14 1:0.075471698 2:2 
-10 0:4 1:0.25 2:0 
-10 0:5 1:0.1627907 2:0 
-10 0:6 1:0.18181818 2:0 
-10 0:7 1:0.04 2:0 
-10 0:4 1:0.22222222 2:0 
-10 0:5 1:0.074074074 2:0 
-10 0:6 1:0.3 2:0 
-10 0:4 1:0.095238095 2:1 
-10 0:5 1:0.33333333 2:0 
-10 0:6 1:0.15625 2:2 
-10 0:10 1:0.22222222 2:1 
-10 0:3 1:0.1 2:0 
-10 0:4 1:0.071428571 2:1 
-10 0:4 1:0.04 2:0 
-10 0:5 1:0.052631579 2:0 
-10 0:6 1:0.035714286 2:0 
-10 0:4 1:0.058823529 2:2 
-10 0:5 1:0.25 2:1 
-10 0:6 1:0.125 2:1 
-10 0:3 1:0.071428571 2:2 
-10 0:4 1:0.05 2:0 
-10 0:4 1:0.057142857 2:1 
-10 0:5 1:0.071428571 2:1 
-10 0:7 1:0.11111111 2:0 
-10 0:8 1:0 2:1 
-10 0:4 1:0.066666667 2:1 
-10 0:5 1:0.2 2:0 
-10 0:6 1:0.26666667 2:0 
-10 0:4 1:0.18181818 2:1 
-10 0:5 1:0.083333333 2:0 
-10 0:6 1:0.045454545 2:0 
-10 0:4 1:0.125 2:1 
-10 0:5 1:0.14285714 2:0 
-10 0:6 1:0.055555556 2:0 
-10 0:3 1:0.083333333 2:2 
-10 0:4 1:0.081632653 2:1 
-10 0:13 1:0.060606061 2:0 
-10 0:4 1:0.19047619 2:0 
-10 0:5 1:0.090909091 2:0 
-10 0:6 1:0.125 2:0 
-10 0:4 1:0.21428571 2:4 
-10 0:5 1:0.31818182 2:0 
-10 0:6 1:0.060606061 2:0 
-10 0:8 1:0.11111111 2:0 
-10 0:3 1:0.2 2:0 
-10 0:4 1:0.2 2:1 
-10 0:3 1:0.052631579 2:2 
-10 0:4 1:0.035714286 2:2 
-10 0:6 1:0.090909091 2:3 
-10 0:3 1:0.090909091 2:1 
-10 0:4 1:0.22222222 2:2 
-10 0:4 1:0.26086957 2:1 
-10 0:5 1:0.14285714 2:1 
-10 0:6 1:0.17857143 2:0 
-10 0:4 1:0.032258065 2:1 
-10 0:5 1:0.0625 2:0 
-10 0:6 1:0.125 2:0 
-10 0:4 1:0.11764706 2:1 
-10 0:5 1:0.1875 2:0 
-10 0:6 1:0.1 2:0 
-10 0:4 1:0.16666667 2:2 
-10 0:5 1:0.066666667 2:3 
-10 0:6 1:0.090909091 2:6 
-10 0:4 1:0.2173913 2:0 
-10 0:5 1:0.076923077 2:0 
-10 0:6 1:0.068965517 2:1 
-10 0:3 1:0.074074074 2:0 
-10 0:4 1:0.038461538 2:2 
-10 0:3 1:0.18518519 2:0 
-10 0:4 1:0.15384615 2:1 
-10 0:3 1:0.076923077 2:4 
-10 0:4 1:0.22222222 2:0 
-10 0:4 1:0.037037037 2:1 
-10 0:5 1:0.0625 2:0 
-10 0:6 1:0.14285714 2:0 
-10 0:4 1:0 2:1 
-10 0:5 1:0.28571429 2:3 
-10 0:6 1:0.0625 2:0 
-10 0:4 1:0.13793103 2:2 
-10 0:5 1:0.10526316 2:0 
-10 0:6 1:0.058823529 2:0 
-10 0:4 1:0.096774194 2:0 
-10 0:5 1:0.018867925 2:0 
-10 0:7 1:0.13636364 2:0 
-10 0:8 1:0.0625 2:0 
-10 0:4 1:0.071428571 2:0 
-10 0:5 1:0.1875 2:0 
-10 0:6 1:0.1 2:0 
-10 0:10 1:0.052631579 2:1 
-10 0:4 1:0.083333333 2:2 
-10 0:5 1:0.13333333 2:1 
-10 0:6 1:0.058823529 2:1 
-10 0:3 1:0.19230769 2:1 
-10 0:4 1:0.18181818 2:1 
-10 0:12 1:0.11111111 2:0 
-10 0:4 1:0.16666667 2:0 
-10 0:5 1:0.068965517 2:2 
-10 0:6 1:0.13333333 2:0 
-10 0:4 1:0.27272727 2:1 
-10 0:5 1:0.11538462 2:2 
-10 0:6 1:0.047619048 2:2 
-10 0:4 1:0.076923077 2:1 
-10 0:5 1:0.076923077 2:0 
-10 0:6 1:0.063829787 2:1 
-10 0:8 1:0.10344828 2:2 
-10 0:4 1:0.037037037 2:0 
-10 0:5 1:0.1 2:0 
-10 0:6 1:0.125 2:0 
-10 0:3 1:0.074074074 2:0 
-10 0:4 1:0.17647059 2:2 
-10 0:11 1:0.0625 2:3 
-10 0:12 1:0.18181818 2:0 
-10 0:3 1:0.27027027 2:2 
-10 0:4 1:0.22580645 2:1 
-10 0:4 1:0.0625 2:0 
-10 0:5 1:0.076923077 2:0 
-10 0:6 1:0.066666667 2:0 
-10 0:4 1:0.30769231 2:2 
-10 0:5 1:0.11764706 2:1 
-10 0:6 1:0.21428571 2:1 
-10 0:3 1:0.076923077 2:0 
-10 0:4 1:0.13333333 2:0 
-10 0:4 1:0.076923077 2:5 
-10 0:5 1:0.15384615 2:3 
-10 0:6 1:0.16666667 2:0 
-10 0:3 1:0.29411765 2:1 
-10 0:4 1:0.17021277 2:0 
-10 0:10 1:0.14285714 2:0 
-10 0:11 1:0.125 2:2 
-10 0:3 1:0.083333333 2:0 
-10 0:4 1:0.16666667 2:0 
-10 0:9 1:0.125 2:1 
-10 0:3 1:0.33333333 2:1 
-10 0:4 1:0.076923077 2:1 
-10 0:5 1:0.15384615 2:3 
-10 0:6 1:0.11111111 2:2 
-10 0:7 1:0.058823529 2:0 
-10 0:8 1:0.1 2:3 
-10 0:4 1:0.083333333 2:2 
-10 0:5 1:0.090909091 2:1 
-10 0:6 1:0.15625 2:2 
-10 0:4 1:0.083333333 2:0 
-10 0:5 1:0.058823529 2:0 
-10 0:6 1:0.23529412 2:0 
-10 0:3 1:0.4 2:1 
-10 0:4 1:0.066666667 2:2 
-10 0:7 1:0.14285714 2:0 
-10 0:4 1:0 2:1 
-10 0:5 1:0.066666667 2:0 
-10 0:6 1:0.13043478 2:1 
-10 0:4 1:0.13043478 2:0 
-10 0:5 1:0.18518519 2:13 
-10 0:6 1:0.11538462 2:15 
-10 0:3 1:0.043478261 2:2 
-10 0:4 1:0.076923077 2:3 
-10 0:11 1:0.03030303 2:0 
-10 0:12 1:0.052631579 2:0 
-10 0:4 1:0.14285714 2:1 
-10 0:5 1:0.52380952 2:0 
-10 0:6 1:0.6875 2:1 
-10 0:4 1:0.25 2:0 
-10 0:5 1:0.36842105 2:0 
-10 0:6 1:0.21052632 2:0 
-10 0:4 1:0.071428571 2:0 
-10 0:5 1:0.083333333 2:2 
-10 0:6 1:0.071428571 2:1 
-10 0:3 1:0.11111111 2:0 
-10 0:4 1:0.10526316 2:0 
-10 0:4 1:0.05 2:1 
-10 0:5 1:0.05 2:0 
-10 0:6 1:0.043478261 2:0 
-10 0:4 1:0.14285714 2:1 
-10 0:5 1:0.2 2:2 
-10 0:6 1:0.17647059 2:0 
-10 0:4 1:0 2:0 
-10 0:5 1:0.20588235 2:0 
-10 0:6 1:0.13043478 2:0 
-10 0:4 1:0.16666667 2:0 
-10 0:5 1:0 2:0 
-10 0:6 1:0.03125 2:0 
-10 0:4 1:0.095238095 2:2 
-10 0:5 1:0 2:1 
-10 0:6 1:0.16666667 2:0 
-10 0:4 1:0.071428571 2:2 
-10 0:5 1:0.15 2:1 
-10 0:6 1:0.095238095 2:1 
-10 0:3 1:0.1875 2:1 
-10 0:4 1:0.24 2:4 
-10 0:11 1:0.1 2:3 
-10 0:4 1:0.090909091 2:2 
-10 0:5 1:0.076923077 2:0 
-10 0:6 1:0.15384615 2:0 
-10 0:5 1:0.27272727 2:1 
-10 0:6 1:0.03030303 2:1 
-10 0:7 1:0.076923077 2:1 
-10 0:8 1:0.11538462 2:2 
-10 0:3 1:0.29411765 2:1 
-10 0:4 1:0.25 2:0 
-10 0:5 1:0.12 2:2 
-10 0:6 1:0.055555556 2:0 
-10 0:7 1:0.14285714 2:0 
-10 0:8 1:0.055555556 2:2 
-10 0:4 1:0.21052632 2:3 
-10 0:5 1:0.1875 2:0 
-10 0:6 1:0.11764706 2:1 
-10 0:4 1:0.6 2:1 
-10 0:5 1:0.076923077 2:2 
-10 0:6 1:0.14814815 2:2 
-10 0:4 1:0.25 2:1 
-10 0:5 1:0.3 2:1 
-10 0:6 1:0.071428571 2:0 
-10 0:3 1:0.15 2:2 
-10 0:4 1:0.03125 2:0 
-10 0:5 1:0.1 2:0 
-10 0:6 1:0.20833333 2:2 
-10 0:7 1:0.12121212 2:4 
-10 0:8 1:0.1 2:1 
-10 0:5 1:0.11111111 2:1 
-10 0:6 1:0.11111111 2:0 
-10 0:7 1:0.11111111 2:2 
-10 0:8 1:0.076923077 2:2 
-10 0:3 1:0.23076923 2:0 
-10 0:4 1:0.14285714 2:0 
-10 0:4 1:0.22222222 2:0 
-10 0:5 1:0.16666667 2:0 
-10 0:6 1:0.36363636 2:0 
-10 0:3 1:0.13333333 2:0 
-10 0:4 1:0.16666667 2:2 
-10 0:5 1:0.11111111 2:0 
-10 0:12 1:0.034482759 2:0 
-10 0:3 1:0.25 2:2 
-10 0:4 1:0.083333333 2:1 
-10 0:8 1:0.2 2:0 
-10 0:5 1:0.18181818 2:1 
-10 0:6 1:0.10526316 2:3 
-10 0:7 1:0.14285714 2:0 
-10 0:8 1:0.090909091 2:1 
-10 0:4 1:0.035714286 2:1 
-10 0:5 1:0.05 2:0 
-10 0:6 1:0.045454545 2:0 
-10 0:4 1:0.14285714 2:1 
-10 0:5 1:0.16666667 2:1 
-10 0:6 1:0.25 2:0 
-10 0:4 1:0.041666667 2:2 
-10 0:5 1:0.11111111 2:0 
-10 0:6 1:0.058823529 2:0 
-10 0:4 1:0.14285714 2:0 
-10 0:5 1:0.05 2:0 
-10 0:6 1:0.052631579 2:0 
-10 0:4 1:0.3 2:1 
-10 0:5 1:0.14285714 2:4 
-10 0:6 1:0.045454545 2:5 
-10 0:3 1:0.15789474 2:5 
-10 0:4 1:0.13333333 2:1 
-10 0:4 1:0.037037037 2:0 
-10 0:5 1:0.125 2:0 
-10 0:6 1:0.0625 2:1 
-10 0:4 1:0.14285714 2:1 
-10 0:5 1:0.14285714 2:1 
-10 0:6 1:0.090909091 2:0 
-10 0:4 1:0.41176471 2:1 
-10 0:5 1:0.11111111 2:0 
-10 0:6 1:0.21052632 2:3 
-10 0:4 1:0.058823529 2:1 
-10 0:5 1:0.02173913 2:2 
-10 0:6 1:0.125 2:1 
-10 0:4 1:0.10526316 2:0 
-10 0:5 1:0.19047619 2:1 
-10 0:6 1:0.15789474 2:0 
-10 0:4 1:0.125 2:3 
-10 0:5 1:0.16666667 2:0 
-10 0:6 1:0.11111111 2:0 
-10 0:13 1:0.17391304 2:2 
-10 0:4 1:0.0625 2:0 
-10 0:5 1:0.11111111 2:0 
-10 0:6 1:0.11764706 2:0 
-10 0:4 1:0.28571429 2:0 
-10 0:5 1:0 2:3 
-10 0:6 1:0.076923077 2:4 
-10 0:4 1:0.045454545 2:1 
-10 0:5 1:0.028571429 2:2 
-10 0:6 1:0.055555556 2:1 
-10 0:5 1:0.034482759 2:0 
-10 0:6 1:0.25 2:0 
-10 0:7 1:0.090909091 2:1 
-10 0:8 1:0.019230769 2:4 
-10 0:4 1:0.14705882 2:1 
-10 0:5 1:0.086956522 2:1 
-10 0:6 1:0.045454545 2:0 
-10 0:5 1:0.033333333 2:0 
-10 0:6 1:0.090909091 2:0 
-10 0:7 1:0.30434783 2:0 
-10 0:8 1:0.2173913 2:0 
-10 0:10 1:0.047619048 2:0 
-10 0:4 1:0.10714286 2:2 
-10 0:5 1:0.066666667 2:0 
-10 0:6 1:0.15789474 2:1 
-10 0:3 1:0.13333333 2:3 
-10 0:4 1:0.055555556 2:1 
-10 0:4 1:0.1 2:0 
-10 0:5 1:0.25 2:0 
-10 0:6 1:0.21428571 2:1 
-10 0:4 1:0.33333333 2:0 
-10 0:5 1:0.038461538 2:0 
-10 0:6 1:0.076923077 2:0 
-10 0:4 1:0.1 2:0 
-10 0:5 1:0.071428571 2:1 
-10 0:6 1:0 2:0 
-10 0:4 1:0.052631579 2:1 
-10 0:5 1:0.055555556 2:1 
-10 0:6 1:0.045454545 2:0 
-10 0:13 1:0.1 2:0 
-10 0:3 1:0.090909091 2:1 
-10 0:4 1:0.20833333 2:2 
-10 0:4 1:0.12 2:1 
-10 0:5 1:0.22727273 2:0 
-10 0:6 1:0.21428571 2:0 
-10 0:4 1:0.055555556 2:0 
-10 0:5 1:0.071428571 2:0 
-10 0:6 1:0.090909091 2:0 
-10 0:3 1:0.035714286 2:0 
-10 0:4 1:0 2:2 
-10 0:8 1:0.22222222 2:0 
-10 0:14 1:0.22222222 2:0 
-10 0:3 1:0.041666667 2:1 
-10 0:5 1:0.033333333 2:0 
-10 0:6 1:0.090909091 2:1 
-10 0:3 1:0.13043478 2:0 
-10 0:4 1:0.41666667 2:0 
-10 0:4 1:0.071428571 2:0 
-10 0:5 1:0.047619048 2:1 
-10 0:6 1:0.051282051 2:2 
-10 0:5 1:0.17142857 2:4 
-10 0:6 1:0.22222222 2:0 
-10 0:7 1:0.090909091 2:0 
-10 0:8 1:0.045454545 2:1 
-10 0:4 1:0.14285714 2:0 
-10 0:5 1:0.11111111 2:0 
-10 0:6 1:0.045454545 2:0 
-10 0:3 1:0.28571429 2:2 
-10 0:4 1:0.15384615 2:3 
-10 0:13 1:0.25 2:0 
-10 0:4 1:0.04 2:2 
-10 0:5 1:0.035714286 2:1 
-10 0:6 1:0.13333333 2:3 
-10 0:3 1:0.15384615 2:0 
-10 0:4 1:0.1 2:0 
-10 0:4 1:0.033333333 2:1 
-10 0:5 1:0.063829787 2:2 
-10 0:6 1:0.05 2:1 
-10 0:5 1:0.3 2:2 
-10 0:6 1:0.055555556 2:1 
-10 0:7 1:0.0625 2:1 
-10 0:8 1:0.083333333 2:1 
-10 0:5 1:0.21428571 2:1 
-10 0:6 1:0.11428571 2:0 
-10 0:7 1:0.052631579 2:0 
-10 0:8 1:0.10526316 2:0 
-10 0:4 1:0.17857143 2:1 
-10 0:5 1:0.25 2:0 
-10 0:6 1:0.16666667 2:0 
-10 0:4 1:0.046511628 2:0 
-10 0:5 1:0.11764706 2:0 
-10 0:6 1:0.34782609 2:0 
-10 0:10 1:0.04 2:0 
-10 0:3 1:0.052631579 2:1 
-10 0:4 1:0.052631579 2:2 
-10 0:5 1:0.2 2:2 
-10 0:4 1:0.16666667 2:1 
-10 0:5 1:0.04 2:0 
-10 0:6 1:0.14285714 2:1 
-10 0:3 1:0.055555556 2:0 
-10 0:4 1:0.10204082 2:4 
-10 0:6 1:0.066666667 2:0 
-10 0:4 1:0.16666667 2:0 
-10 0:5 1:0.23076923 2:0 
-10 0:6 1:0.19354839 2:0 
-10 0:4 1:0.074074074 2:4 
-10 0:5 1:0.047619048 2:2 
-10 0:6 1:0.037037037 2:3 
